437 128
188 0.047764 0.078700 0.120500 0.081967 -0.065434 -0.555967 -0.078233 0.048424 0.070514 -0.038629 0.195102 -0.073198 0.093858 -0.114163 0.074884 0.295098 -0.040496 -0.018470 0.189453 -0.135360 0.021022 -0.089604 0.208510 -0.239595 0.072582 -0.080712 0.121653 0.049577 -0.149534 0.159570 0.153244 0.040002 -0.434956 0.101065 0.017889 0.017613 -0.051705 -0.054607 0.061293 0.130311 -0.059132 -0.180068 0.387274 -0.136617 0.327329 -0.244578 -0.183862 -0.036995 -0.193471 0.001281 0.432945 -0.094264 0.253567 0.397637 -0.069736 -0.067854 0.372818 0.245702 -0.197758 -0.109180 0.190543 -0.161785 0.040915 -0.231492 0.230246 0.014057 0.014311 0.209987 0.094961 0.148169 -0.037252 -0.309362 0.182795 -0.225235 0.244324 -0.037381 0.085046 -0.049809 0.167605 0.079158 -0.006647 0.216334 -0.098177 0.154457 0.171690 0.051551 0.307113 -0.122153 0.034398 0.195112 0.091409 -0.347181 0.270912 -0.300767 -0.196295 -0.018003 -0.053987 0.036279 -0.009339 -0.124360 -0.084484 0.188701 0.045073 -0.358178 -0.086143 -0.099847 -0.136465 0.110450 0.001870 -0.028032 -0.286512 -0.002017 -0.151204 0.094262 -0.051830 -0.002327 -0.244874 0.077497 0.115505 0.031797 0.189192 0.007524 -0.177746 -0.239161 -0.213168 0.047121 0.271948 0.201217
276 -0.150826 0.108053 0.280411 -0.229925 -0.069601 -0.155335 -0.206826 0.002076 -0.241961 -0.088824 -0.210726 -0.428123 0.136549 0.216175 0.159259 0.259198 -0.168892 -0.061027 0.286394 -0.170891 -0.133175 0.274835 0.101587 -0.109562 -0.230672 -0.350226 0.296159 0.026591 -0.101127 0.244621 0.084652 0.024439 -0.109007 0.034060 -0.111742 -0.048172 0.061718 -0.019530 -0.213807 0.010235 -0.074067 0.094089 0.074724 -0.098445 0.201193 0.100109 -0.052633 0.145418 0.086826 -0.100746 0.105857 -0.385089 0.130825 -0.094814 0.058664 -0.038016 0.267765 0.279411 -0.012353 -0.036314 -0.045216 -0.050456 0.237818 -0.214274 -0.065101 0.220827 -0.054099 -0.189422 0.403474 0.112245 0.087316 0.211958 0.120895 -0.218942 0.121390 0.230748 0.147005 0.144805 -0.148857 0.040150 0.027155 0.114852 -0.325007 0.124543 0.346738 -0.085266 -0.284848 0.080377 -0.290340 0.320324 0.304312 -0.131671 0.152266 0.010026 -0.033849 -0.497575 0.142056 -0.124614 -0.092091 -0.076527 -0.142009 0.501620 0.309853 0.174159 -0.285480 -0.137566 0.158051 -0.033974 -0.229434 -0.007045 -0.217012 0.004269 -0.302710 -0.324761 -0.105214 0.109344 -0.196339 0.000054 -0.331587 0.095893 0.068740 -0.074471 0.134135 -0.121564 -0.135643 0.195792 0.284866 0.159042
635 0.187407 -0.176592 0.213726 0.132869 0.210637 0.210587 -0.282282 -0.030012 0.007499 0.181560 0.316710 -0.052838 0.144134 -0.370169 0.054141 0.289861 -0.108820 0.057365 0.007391 -0.362728 0.321597 0.115333 -0.097214 -0.045673 0.024100 -0.214529 0.105289 -0.192238 -0.038884 0.163601 -0.003185 -0.308338 -0.038414 0.141665 0.147504 -0.183235 -0.052963 -0.337805 -0.212358 0.118906 0.056622 0.089533 0.182586 -0.133427 0.044261 -0.237660 -0.063158 -0.067734 0.325307 -0.221720 0.187585 0.204421 0.002562 0.389648 0.023910 -0.069256 0.168426 0.109633 0.034035 -0.096669 0.138261 -0.038346 -0.347151 0.087165 0.148345 -0.204546 0.126954 -0.329758 0.120099 0.248427 -0.167504 -0.169755 0.210957 -0.176472 0.040138 0.153981 -0.038479 -0.021774 0.166115 -0.266352 -0.299896 0.162205 0.117612 0.093755 -0.083733 -0.086895 0.179183 -0.008168 -0.126264 0.215160 0.279710 -0.394454 -0.046296 0.260190 -0.153827 -0.077191 -0.292694 -0.289149 -0.450179 0.141206 0.161795 -0.097333 0.134105 0.123280 0.074093 -0.250399 0.077596 -0.148098 -0.208151 0.101112 -0.138090 -0.001868 0.068766 -0.239396 -0.225768 -0.078163 -0.327980 0.149880 -0.042673 -0.111198 0.135890 0.089084 0.014676 0.161229 0.015982 -0.078824 -0.182715 0.036210
795 0.322622 0.029008 -0.139483 0.023298 0.030177 -0.002043 -0.058121 -0.278586 0.201966 -0.254353 0.201522 -0.032685 0.011833 -0.119079 0.053353 0.340903 -0.083556 0.138350 0.212894 0.029430 0.163949 -0.133913 0.148457 -0.259290 0.329316 0.002405 -0.231288 -0.220280 -0.213928 0.282267 -0.170481 -0.134021 0.094870 0.206865 0.313882 -0.138900 -0.088774 -0.196715 -0.247258 -0.019541 0.052891 -0.218233 -0.074074 0.025020 0.172812 -0.196018 0.124013 0.004441 0.151302 -0.164412 0.379136 0.112233 0.226614 0.068874 0.155059 -0.097815 -0.026875 0.055849 0.298905 0.099521 -0.090395 0.185757 0.374898 -0.432685 0.027959 -0.271303 0.277292 -0.146104 -0.010041 0.014272 0.093836 -0.169057 0.201699 0.057066 0.335892 0.075203 0.175682 -0.271884 0.239156 -0.030357 0.203427 0.020195 -0.113552 0.156461 -0.058465 -0.019187 0.089290 -0.026899 -0.236957 0.208487 -0.024043 -0.257877 -0.205476 0.240506 0.113627 0.124548 0.155265 -0.048288 -0.049753 0.081048 0.120687 -0.006558 -0.022611 0.118351 0.139609 -0.308234 0.066906 -0.292721 -0.338264 -0.139352 -0.249336 0.294465 -0.132145 -0.080202 -0.224733 0.174844 0.016195 -0.012459 -0.067548 -0.185946 0.104124 0.399152 -0.384106 -0.204062 -0.007578 -0.190835 -0.174451 -0.033814
546 -0.048535 -0.248459 0.193592 -0.150537 -0.142245 -0.046931 0.069528 -0.074173 -0.203791 -0.143053 -0.265725 0.095667 -0.035411 -0.055056 0.064098 0.050497 -0.497064 -0.040906 0.115453 -0.165087 -0.135827 -0.118978 -0.181533 -0.244013 0.180542 -0.105780 -0.033515 -0.229696 0.063348 0.207536 -0.167897 0.010960 -0.080046 0.223232 0.171290 0.084327 -0.210390 -0.033015 0.193436 0.025473 0.276225 -0.092722 0.283145 -0.381081 0.017629 -0.035292 0.055439 -0.020401 0.417042 0.164084 -0.012202 0.275397 0.101141 -0.155324 0.133102 -0.179923 0.006851 -0.059709 0.032172 0.086208 -0.160913 0.208249 -0.100386 -0.248889 -0.305218 -0.296202 0.026615 -0.160303 0.267670 0.123277 0.120042 -0.056148 0.203789 0.140834 0.092881 0.217084 0.147819 -0.277965 -0.055258 0.014470 -0.003197 -0.027299 -0.187535 0.083111 0.112217 -0.040690 -0.094680 0.098353 -0.183108 -0.272430 0.235474 -0.467984 0.066613 0.430201 -0.100253 -0.143423 -0.012422 -0.052489 -0.238055 -0.146750 0.295486 -0.070536 0.265462 -0.163727 -0.125043 -0.099444 -0.119279 -0.472558 -0.242881 0.059862 -0.168082 0.013121 -0.012536 0.082014 -0.402417 0.159194 -0.174841 0.186644 -0.166711 -0.084046 0.264887 0.036983 0.146474 -0.189700 0.107883 0.118274 -0.211635 0.104233
808 0.086905 0.344331 -0.045580 0.020614 -0.134198 -0.042883 -0.121000 -0.031898 0.071539 -0.321943 0.152777 -0.226362 0.026382 0.069533 0.273720 0.486504 -0.021868 0.059227 0.017604 -0.226149 -0.229348 0.199795 0.254116 -0.181588 0.124707 0.215009 0.239352 -0.069703 -0.190424 -0.112490 0.079432 0.046121 0.015566 0.293430 0.045490 -0.303933 -0.184462 0.352906 -0.199723 0.037150 0.279622 -0.082722 -0.016033 -0.204110 0.169256 -0.207940 0.249442 -0.075548 0.125773 -0.104678 0.355756 -0.017835 0.036540 -0.002580 0.126277 -0.293179 -0.062902 0.134380 0.060208 -0.247363 0.048935 0.043579 0.273634 0.104871 -0.130695 0.000549 -0.157326 0.063362 0.313801 0.013167 0.263015 0.148017 0.185307 0.070182 0.296010 -0.032612 -0.079469 -0.134828 0.010476 0.213975 -0.226190 0.177369 -0.264579 0.048975 -0.014435 -0.009957 0.092977 -0.048614 -0.483680 0.224172 0.060674 -0.078851 0.197093 0.200423 -0.058089 -0.004233 0.166038 0.061714 -0.192905 0.191422 0.141768 -0.047817 0.469450 0.197312 -0.002985 -0.181238 -0.040992 0.038514 -0.244643 -0.117259 -0.438758 0.164981 0.131196 -0.147328 -0.006990 0.026813 0.095000 0.054479 -0.027984 -0.161329 0.425161 -0.033001 -0.194443 0.086252 0.046833 0.282724 0.167636 0.082615
4 -0.034204 0.282918 -0.012352 -0.039966 0.321246 -0.493761 -0.065380 0.143095 0.018651 -0.181788 -0.192168 0.087528 0.233492 0.155269 -0.322038 0.043685 0.018571 0.020989 0.243476 -0.141483 0.192997 -0.283797 0.073998 -0.376919 0.299347 -0.181434 -0.006157 0.067151 0.175917 -0.038073 0.113019 -0.059488 -0.123892 0.021067 0.197760 -0.060273 -0.179398 -0.143100 -0.045203 0.087793 0.435276 -0.175546 0.261195 0.024242 0.336877 0.052794 -0.149555 -0.188181 -0.070609 -0.128957 0.350517 -0.256314 0.277078 0.062897 -0.135610 -0.188678 0.245969 0.262067 -0.154205 0.164861 0.180175 0.031222 0.249513 -0.045182 -0.111953 -0.073156 -0.126580 -0.131922 0.041019 -0.159083 0.307087 -0.005760 0.264094 -0.170083 0.154729 0.267192 0.169547 0.029785 0.079930 -0.003205 -0.035516 -0.078817 -0.003560 0.448404 0.106575 -0.068764 0.165819 -0.043219 0.051452 0.599319 0.194870 -0.059159 -0.093495 0.167580 0.056457 0.136773 0.041862 -0.061961 -0.007466 -0.108782 -0.274505 0.282497 0.240684 0.350706 0.028346 -0.179292 0.099973 0.045428 -0.244836 0.211336 -0.196131 -0.109816 -0.039193 0.036517 -0.166806 -0.012075 -0.384696 0.064469 -0.292172 -0.078835 0.438678 -0.234927 0.007649 -0.310203 -0.211569 -0.189601 0.268578 0.342004
585 -0.196348 -0.181461 0.299006 -0.182515 -0.089021 0.375552 -0.129345 -0.055780 -0.165375 0.068689 -0.157009 -0.575210 0.174811 0.031868 0.335237 -0.044815 -0.002441 0.070189 0.259457 0.049358 -0.165325 -0.076118 0.319588 -0.304777 -0.082040 -0.232006 0.273877 -0.123381 0.022549 0.253385 -0.151665 0.090998 0.040505 0.117711 -0.008123 0.156738 -0.683127 0.005549 -0.156987 0.058222 0.204711 -0.074189 0.298911 -0.132636 -0.025449 0.113556 0.257702 -0.041568 0.324937 -0.109632 0.068163 -0.004766 -0.134565 -0.229132 0.144219 -0.131527 0.313608 0.245595 0.419676 -0.000645 -0.175099 -0.115644 -0.062414 -0.189232 -0.210986 -0.144397 0.324026 0.035788 0.098581 -0.060290 -0.094948 -0.082361 0.546566 0.001779 0.097068 -0.115195 -0.035429 0.055355 -0.023304 -0.064649 0.108719 0.198679 -0.214026 0.235248 0.034870 -0.028167 -0.028486 0.189102 -0.423446 -0.198789 0.023349 -0.193529 0.088171 0.156010 0.047975 -0.268189 -0.176001 -0.389740 -0.244172 -0.280527 0.135263 0.220224 0.263580 -0.017782 -0.117983 0.055325 -0.155273 -0.436659 -0.354387 -0.324810 -0.075077 0.320463 -0.156979 -0.158151 -0.192922 0.017604 -0.249164 0.143164 0.017276 0.103320 0.431290 0.298683 0.205672 -0.008978 0.277940 -0.250588 -0.074709 0.290832
619 -0.189838 0.105461 -0.153794 -0.209925 -0.156101 -0.098108 0.164048 -0.061018 -0.042761 -0.103652 0.273667 -0.122194 -0.002165 0.030439 0.301421 0.314213 0.050650 0.033488 0.124631 0.003893 -0.357656 0.041519 0.112684 -0.457600 -0.106252 -0.252477 0.166261 -0.014281 -0.006549 -0.040183 -0.011613 0.064510 -0.379118 -0.100961 0.300819 0.098705 -0.176146 -0.103626 0.070218 0.211207 0.067543 -0.114440 0.244812 0.211967 0.298493 -0.153195 0.206823 -0.294407 -0.008947 0.022633 0.178116 0.188178 0.237791 -0.281226 -0.041901 -0.176242 0.345915 0.249110 -0.035732 0.045286 -0.133075 0.092620 0.106024 -0.193625 -0.087522 0.044494 0.125490 -0.063496 0.083449 0.301760 0.330343 -0.111869 0.049509 0.287094 0.183604 -0.497818 -0.246793 0.302254 -0.171133 -0.416166 -0.109904 0.106509 -0.107873 0.272042 -0.275777 0.065883 0.080507 0.068578 -0.080651 0.192407 -0.229713 -0.166671 0.033074 0.135144 -0.043298 -0.132416 -0.112516 -0.057334 -0.266886 0.104553 -0.349282 -0.202508 0.260851 -0.155006 0.178673 -0.173027 -0.018085 -0.037741 0.215073 -0.145123 -0.162171 0.293254 0.060072 0.030907 -0.262308 -0.279254 0.119614 0.051712 -0.154062 -0.095449 0.172479 -0.280734 0.258256 0.003896 -0.073766 -0.492237 -0.153243 -0.146095
1426 -0.183679 0.036717 0.026529 0.006513 -0.359621 0.146201 -0.100836 0.268780 0.054954 -0.128226 0.230813 -0.176170 -0.204114 -0.147981 0.146407 0.006322 -0.197787 -0.070893 0.108652 0.061511 -0.117689 0.307622 0.109352 0.011065 -0.017370 -0.062267 0.059600 -0.044161 -0.099117 0.126081 -0.028193 -0.219272 -0.017286 -0.073459 -0.004576 0.038193 -0.008809 0.182940 -0.136462 0.005388 0.138748 0.267631 -0.144231 -0.107802 0.438314 -0.394944 0.208724 -0.087440 0.327651 -0.045857 0.223982 -0.290094 0.172164 0.048997 0.081735 -0.138029 -0.005067 0.272659 0.109993 0.095258 -0.044248 -0.111848 -0.145540 0.209562 -0.292217 0.000992 0.042593 0.060501 0.572509 0.184953 0.161339 0.034466 0.033047 -0.011963 0.278001 -0.062040 0.218304 0.079489 0.222413 0.016023 -0.126775 0.183646 0.179755 0.109737 -0.126256 0.108298 0.026991 -0.004909 -0.179562 0.010556 0.225698 -0.299055 -0.036286 0.004220 -0.331000 -0.049553 -0.039719 -0.185910 0.065125 0.016334 -0.269322 0.084227 -0.094419 0.280130 -0.031656 -0.014842 -0.001695 -0.000515 -0.380688 0.100544 -0.521837 0.146704 -0.118170 -0.378734 -0.279682 0.035321 0.115875 0.296555 -0.471589 -0.048692 0.493176 -0.059972 -0.165926 0.100840 0.051211 0.273278 -0.210973 0.409661
1047 -0.010353 -0.155463 0.081139 -0.000675 -0.192153 0.237164 -0.328819 -0.300008 -0.094663 -0.291986 0.082808 0.036317 0.064425 -0.096262 0.206379 0.272974 -0.202263 0.008102 0.196985 -0.148297 0.164612 -0.099534 0.212455 -0.219770 -0.232349 -0.204727 0.022978 -0.070322 -0.147180 0.174467 0.046179 -0.158851 -0.304687 0.082838 -0.133567 -0.109039 0.035902 0.209265 0.102349 0.193887 0.228098 0.112369 0.222989 -0.221463 0.294218 0.073532 -0.085803 0.026339 -0.225640 -0.171294 0.298377 -0.024259 0.157143 -0.056307 0.213055 -0.004184 0.301823 -0.184113 0.156697 0.011796 -0.010355 -0.090867 -0.197885 0.025127 -0.296608 -0.107636 0.104795 -0.452196 0.552916 -0.055509 0.131706 0.027727 0.348265 -0.067557 0.254781 0.350179 0.008903 0.108405 0.129069 -0.196495 -0.236250 0.271221 -0.004024 -0.037776 0.071814 0.118522 -0.111984 -0.249581 0.101624 0.247803 0.037615 -0.205495 0.167488 -0.064009 0.014682 -0.033196 -0.122686 0.001824 -0.273438 -0.056890 0.216330 -0.051414 0.270796 -0.320234 0.089201 0.178462 -0.065449 -0.131776 -0.254047 0.417389 0.123948 0.381537 0.139771 -0.190980 0.054577 -0.277701 -0.409834 -0.159618 0.067978 -0.086756 0.538858 0.102654 0.083451 -0.077206 -0.153926 -0.097460 -0.200048 0.269731
31 0.059438 -0.018680 -0.180142 0.108427 -0.160203 -0.071539 -0.144301 -0.371015 0.034623 -0.125749 0.154077 0.205257 0.117565 -0.137983 0.316445 0.099946 -0.173755 -0.077792 0.667941 -0.031280 0.029056 -0.010755 0.089554 -0.131429 -0.035218 -0.176656 -0.052285 0.070711 -0.100541 0.050583 -0.209519 0.082715 -0.047953 0.158647 0.065277 0.070478 -0.091831 0.014357 0.046919 0.031532 0.125685 -0.016499 0.323437 -0.030898 0.016859 0.045314 -0.023824 0.059618 -0.072023 0.040635 0.009768 0.205811 0.129519 -0.145425 0.104866 -0.004133 0.024300 -0.081434 0.310323 0.117781 0.137574 0.192428 -0.025188 -0.045323 -0.113887 0.203003 0.208704 -0.275669 0.122882 0.514679 -0.056645 -0.264463 0.253078 0.212241 0.510447 0.047626 0.134400 -0.127744 -0.305484 -0.009834 -0.095467 0.127473 -0.021865 -0.024955 0.267247 -0.082047 0.157506 -0.162484 -0.134458 -0.038542 -0.180266 0.095478 -0.110165 0.302862 -0.018472 0.041635 -0.060319 -0.050671 -0.230259 0.283871 -0.022410 -0.065816 0.182485 -0.295025 -0.016309 -0.279761 0.209154 -0.124658 -0.383009 0.035776 -0.442949 0.029856 -0.117563 -0.257350 -0.178340 0.201667 -0.557551 -0.168365 -0.300846 -0.037060 0.029732 0.032572 0.153995 -0.261216 -0.108024 0.103603 -0.057998 -0.149021
1580 0.106927 0.120517 0.025778 -0.112234 0.136200 -0.138122 0.130861 -0.127049 -0.172511 0.019226 0.230318 0.069458 0.090444 0.121488 -0.001105 0.453022 -0.013269 0.025133 -0.128622 -0.213635 -0.014693 0.081087 0.095205 -0.233785 0.073722 -0.119781 0.214144 0.109791 0.115350 -0.082438 0.234465 0.027588 0.011132 -0.177850 -0.062121 0.048917 0.219550 0.048249 -0.391297 0.184970 -0.014093 0.034424 0.207956 -0.443610 0.125937 0.250757 0.130817 0.007262 0.238383 0.174238 0.021228 -0.005386 0.235833 -0.310128 0.127378 -0.410002 -0.010356 0.245791 0.099585 0.169090 -0.033003 -0.225139 0.185523 -0.125279 0.517861 -0.021341 0.160860 -0.071291 0.123327 0.249768 0.096126 0.044502 0.568835 0.005156 0.226118 -0.145059 -0.026793 -0.522550 0.213519 0.092993 0.017011 0.110954 0.375803 -0.122990 -0.004170 0.006519 -0.162261 0.164680 -0.239773 0.206448 0.023133 -0.168413 0.240407 0.218890 -0.242905 -0.130497 0.036623 -0.070450 -0.217392 0.329864 -0.094650 0.005511 0.136962 -0.103983 -0.405496 -0.155612 0.043594 -0.047424 -0.339866 0.035702 -0.232131 0.240668 0.239992 -0.060707 0.065657 -0.049264 -0.161897 0.309273 -0.043060 -0.077453 0.440766 0.244338 -0.181707 -0.015843 -0.011889 -0.090867 0.065868 0.182523
355 0.077309 -0.038904 -0.203165 0.006534 -0.353615 0.072114 -0.119061 0.121159 0.120003 0.020327 0.253105 -0.137974 -0.114987 -0.147744 0.253252 -0.101068 -0.179089 0.076391 0.130494 -0.262407 -0.124045 -0.074845 -0.016798 0.030540 0.109874 -0.122096 0.135532 0.296569 -0.148173 0.238692 0.304761 -0.169625 -0.179434 -0.141774 0.073565 0.104495 -0.458783 0.213033 -0.057675 0.135140 -0.352494 0.208410 -0.050313 -0.131709 -0.027134 0.126590 -0.055805 0.075495 0.192866 -0.004536 0.055430 -0.033659 0.231808 -0.092536 0.057420 -0.142045 0.132757 0.116704 -0.027828 0.064859 0.233334 0.407705 -0.093279 0.016610 -0.327407 -0.239252 0.291995 -0.027163 -0.025188 0.078969 0.175184 -0.082509 0.252753 -0.037195 0.136230 -0.137562 0.306364 0.143420 0.211430 0.309681 0.228102 -0.056762 0.100735 0.291688 0.300049 -0.283841 0.102114 -0.000439 -0.055037 -0.229446 0.508606 -0.171697 -0.118675 -0.196359 -0.068497 -0.201585 0.119544 0.017120 -0.026764 -0.002632 -0.057240 0.142163 -0.071490 0.060527 0.170333 -0.401374 -0.085816 -0.017098 -0.336347 -0.060101 -0.230272 0.227605 -0.054896 -0.371766 -0.404098 0.105964 -0.363048 0.234864 -0.164249 -0.058381 0.477703 0.071004 0.214177 -0.224994 0.212680 0.265546 -0.031391 -0.076610
554 -0.036038 -0.118116 -0.176287 -0.012277 -0.078949 -0.406078 0.022975 0.017053 0.401985 -0.262757 0.065495 -0.028424 0.253527 -0.080782 0.190806 0.060094 -0.016867 0.139705 0.055365 -0.188139 -0.145252 0.160577 0.021220 -0.013281 0.043938 -0.236945 0.362048 -0.030274 -0.014742 0.108013 0.296120 0.048502 -0.024486 -0.196182 0.126314 -0.131027 -0.235072 0.064764 -0.169733 0.325511 0.181652 0.056941 0.160789 -0.219326 0.298546 0.048647 -0.056750 0.065969 -0.053140 -0.137751 -0.003814 -0.096605 0.253500 -0.094736 0.178215 -0.364818 0.253554 0.332181 -0.292465 -0.066153 0.020107 -0.104587 0.153693 0.046576 -0.198250 0.042106 0.107103 -0.068361 0.129505 0.126017 0.059006 0.039608 0.288409 -0.170408 0.118118 0.299195 0.016966 -0.309573 0.044588 0.368841 -0.319796 0.226126 0.193096 -0.035420 0.107411 -0.110141 0.023990 0.116021 -0.004928 0.245964 0.275607 -0.234956 -0.249790 0.005808 -0.220883 -0.005980 -0.006870 0.009371 -0.078296 0.021913 -0.183284 0.252028 0.149265 0.198302 -0.329839 -0.394442 0.067996 0.394568 -0.186204 -0.062761 -0.476484 0.179357 -0.049356 -0.139283 0.348694 -0.090590 -0.185718 0.006675 -0.120560 0.063922 0.098723 -0.254051 0.137468 0.089911 -0.196335 -0.104857 0.552320 0.394796
1032 -0.330857 -0.039100 0.105338 0.028942 0.018834 -0.320274 -0.092844 -0.261181 0.000430 0.048295 -0.026584 0.204168 0.015300 0.114969 0.199451 -0.182548 -0.098652 -0.237767 0.550234 -0.091579 0.016387 0.196431 0.009971 -0.190093 0.365837 -0.055426 0.152161 0.049914 -0.256094 0.139684 0.231516 -0.086974 0.060006 -0.166383 0.224442 -0.046472 -0.083395 0.070462 0.274495 0.118854 -0.103300 0.004376 0.549601 -0.300657 0.140076 0.133885 -0.077023 0.014510 0.069577 -0.224107 0.219055 0.554074 0.222430 0.066474 -0.100602 -0.386949 0.283510 0.383919 0.224996 -0.154560 0.172958 -0.003089 -0.045927 -0.148576 -0.177497 -0.169009 0.136839 0.071161 -0.009830 0.150430 0.209033 -0.020293 -0.016375 0.108231 0.249582 -0.068967 0.234600 -0.007018 0.163252 -0.114917 -0.321881 0.146532 -0.079309 0.216848 0.200165 0.076353 0.178878 -0.151572 0.080101 -0.166534 0.451987 -0.066824 0.141693 0.004867 -0.202496 -0.042812 -0.063439 -0.202957 -0.025320 0.088971 -0.026132 -0.144842 0.111027 -0.006695 -0.181595 -0.156326 -0.210815 -0.039297 0.042497 0.119136 -0.245193 -0.032260 0.051980 0.030860 -0.071457 0.220359 -0.209721 0.229847 -0.050068 0.009976 0.071348 0.020837 0.015666 -0.364896 0.049485 0.146206 -0.177358 0.044313
359 -0.061888 0.056468 0.029779 -0.199598 0.037796 -0.289884 -0.092427 -0.047623 -0.361096 -0.072336 -0.066008 0.155127 -0.234698 -0.387154 0.154811 0.033231 -0.491664 0.254195 0.330268 -0.398179 -0.116805 -0.003685 -0.185761 -0.266193 0.452071 -0.091343 0.107687 -0.078251 -0.183558 -0.053216 0.293347 0.125064 -0.003182 -0.309136 0.092685 0.079390 -0.373493 0.132212 -0.060037 0.264845 -0.165675 0.098412 0.221796 -0.192990 0.074120 -0.301527 0.159307 0.064276 0.342271 0.068448 0.286148 -0.007275 0.267718 0.148358 -0.047148 -0.159477 -0.269721 -0.045483 0.208976 -0.119023 -0.223138 -0.023550 -0.353124 -0.030243 -0.097827 -0.130393 0.019459 -0.124243 0.252799 0.015426 0.262551 0.123578 0.230739 -0.073348 0.262481 -0.080992 0.097345 -0.106789 0.178019 -0.027809 -0.265279 0.078492 -0.094140 -0.080958 0.041739 -0.079737 0.145573 -0.290181 0.013287 0.087060 0.279808 -0.312292 0.267954 0.221478 -0.245264 -0.105304 0.090061 0.024148 0.027227 -0.037532 -0.388934 -0.093803 -0.100611 -0.085906 -0.029153 0.084478 -0.145300 -0.252796 -0.213450 0.097759 -0.375845 0.108349 0.138138 -0.113546 -0.336853 0.118075 0.129562 0.089343 -0.247201 -0.046619 0.286078 -0.009555 -0.305696 -0.172173 0.297126 0.153017 -0.057662 -0.175356
72 0.224803 0.088378 0.005520 -0.032846 -0.000545 0.213409 -0.167916 0.139314 -0.232784 0.025738 0.101110 -0.107876 0.014757 -0.268275 0.340640 0.147550 -0.093486 -0.004772 0.150262 -0.139338 -0.289566 0.007811 0.014237 -0.129390 -0.324292 0.159815 0.115245 -0.102787 -0.122475 0.045451 0.099348 -0.028400 -0.211022 -0.011472 0.315701 -0.194205 -0.092982 -0.073496 -0.101182 -0.076531 0.319208 0.141297 -0.049236 -0.234014 -0.092419 -0.145823 0.133753 -0.072713 0.366992 0.033071 0.161046 -0.065814 0.205424 -0.009234 -0.082288 0.126607 0.210001 0.571074 0.209810 0.184167 0.087950 -0.115482 0.041378 -0.036756 0.135571 0.048662 0.089251 -0.294918 0.331277 0.169923 0.317136 0.144221 -0.013873 -0.259526 0.326819 -0.107832 0.211027 0.093027 0.212752 -0.111203 -0.062534 -0.126165 -0.103801 -0.118730 0.066519 -0.053131 0.028724 -0.088733 -0.035837 0.432358 0.349636 -0.339815 -0.035263 0.195161 -0.284096 -0.178138 -0.052152 -0.040866 -0.202581 0.234413 -0.083575 0.036051 0.072384 0.298707 0.065231 -0.025440 -0.068097 0.017597 -0.545752 0.068452 0.044390 -0.017851 -0.170225 -0.566174 -0.186645 0.158982 -0.058441 0.308502 -0.332639 -0.337659 0.090512 -0.457445 0.114083 0.205071 -0.194186 -0.030222 -0.211083 -0.059345
442 -0.165323 0.054464 -0.144056 -0.344651 -0.251177 0.260992 -0.055678 -0.049700 0.220790 0.050819 -0.076638 -0.042840 0.006933 -0.155370 -0.125910 0.439752 -0.076400 0.142213 0.126004 0.071693 -0.140012 0.005456 -0.178793 -0.377716 -0.035381 -0.053506 0.136130 -0.069376 0.074037 0.287076 -0.201630 0.058730 -0.278885 0.062202 -0.079549 0.157392 0.128577 -0.451236 0.045580 0.302591 0.262308 0.157908 0.445648 -0.286908 0.135788 0.019595 -0.102006 -0.247185 0.070743 -0.112631 0.337335 0.176928 -0.047206 -0.193235 -0.139620 -0.299680 0.210431 0.025199 0.211381 0.057720 -0.162430 0.007547 -0.147760 -0.404581 0.118613 -0.238255 -0.007164 0.118015 -0.006165 0.446975 0.300488 -0.088249 0.366566 0.103178 -0.154781 0.312340 0.154205 -0.149703 0.062884 -0.076691 -0.063302 0.268713 0.108176 0.184912 -0.005984 0.091649 -0.215532 0.213766 0.227418 0.276938 -0.113231 -0.435306 0.010501 -0.174628 -0.213245 -0.057275 -0.314003 0.058362 -0.417517 0.207822 0.140520 0.035567 -0.024906 0.036910 0.002915 -0.276910 -0.160338 -0.116021 -0.159684 0.135537 -0.054877 -0.140655 -0.086168 -0.013848 -0.371254 -0.127328 -0.398952 -0.065009 -0.282587 -0.278491 0.509821 -0.053795 0.358118 0.369696 -0.327895 -0.122228 -0.142440 0.257850
611 0.072513 -0.207090 -0.210381 0.146347 -0.056485 0.142805 0.095343 -0.347822 0.246386 -0.244930 -0.013778 -0.149424 0.098978 -0.093464 -0.162278 0.446870 -0.127156 0.004738 0.080886 -0.049355 -0.005726 0.097687 -0.086389 -0.293837 0.227551 -0.401338 0.006290 0.005114 0.094575 0.212187 0.023172 -0.300981 -0.252620 0.302230 -0.275842 0.218126 0.234423 -0.200680 0.120700 0.149509 0.446354 0.042505 0.129419 -0.241306 0.198888 -0.069437 0.217657 0.024000 -0.060239 -0.218807 0.124015 0.247464 -0.033732 -0.231300 0.022699 -0.265108 0.100321 0.257258 0.150638 -0.059574 -0.106739 0.045962 0.153375 -0.444495 -0.093573 -0.042478 0.110273 -0.279212 -0.105312 0.063884 0.015992 0.063660 0.309407 -0.023670 0.262799 0.220475 0.320019 -0.460531 -0.079422 -0.016464 0.016593 0.518445 0.012867 0.058074 0.281663 0.143102 -0.154837 -0.028207 -0.073274 0.114188 -0.231058 -0.471055 0.099669 -0.005008 -0.101216 -0.148556 -0.116205 0.056934 -0.228321 0.361055 0.061117 0.243341 0.160885 -0.075698 -0.096521 -0.105199 0.054635 -0.059968 -0.130258 0.555222 -0.091339 0.050168 -0.030058 -0.183377 0.023440 0.163269 -0.513863 -0.145285 -0.180604 -0.109265 0.163845 0.231220 0.108455 -0.010761 -0.333404 -0.220493 -0.182373 0.179394
832 0.144673 0.242040 0.004660 0.055212 -0.215425 -0.044711 -0.325654 -0.269813 -0.015515 0.230606 0.203045 -0.134879 0.265482 -0.158962 0.523195 0.230851 -0.002957 -0.156024 0.232753 -0.041841 0.153304 -0.234016 0.009552 -0.218332 -0.276550 0.002603 0.268465 -0.199625 -0.335626 0.255541 -0.136872 -0.047703 -0.500030 -0.039618 0.110902 0.050680 0.042349 -0.011886 -0.113233 0.189023 0.027258 -0.246581 0.156838 -0.251693 0.138069 -0.122891 -0.004059 0.089690 -0.112043 -0.226307 -0.046686 -0.106253 0.100744 -0.100082 -0.061057 -0.354742 0.139131 0.425340 0.216206 -0.117346 0.111747 -0.075200 0.203846 -0.248026 0.184943 0.149891 0.243094 -0.038413 0.041952 0.011387 -0.058834 -0.046648 0.304870 0.134201 0.364280 0.159393 0.075820 0.005570 -0.183702 -0.070061 -0.076891 0.390776 -0.295828 -0.021744 0.125619 0.067659 0.114518 -0.109167 0.142089 0.245135 -0.067108 -0.344675 0.043080 -0.000675 -0.115633 0.085023 -0.024653 -0.107056 -0.048722 0.074840 -0.072251 -0.013549 0.192869 -0.139563 0.111677 -0.407553 0.043805 -0.409749 -0.143438 0.073526 -0.123062 -0.053035 -0.204729 -0.429455 -0.204341 0.129780 0.050064 -0.456693 -0.311491 -0.062800 -0.269837 -0.164799 -0.026345 -0.024145 -0.308716 0.055677 0.045751 0.013071
1290 -0.077477 0.167237 -0.009117 -0.038289 0.099212 -0.327181 0.112075 0.055957 0.071226 -0.165802 -0.000464 0.115660 0.036112 0.145058 0.119682 -0.017743 -0.061132 0.204039 0.119676 0.086587 -0.258545 0.167424 0.034673 -0.290605 0.000333 -0.075884 0.049046 -0.122463 -0.051374 0.238517 0.393428 -0.071382 -0.018858 -0.107834 0.101405 0.088172 0.128838 -0.168423 0.239516 0.126934 0.199989 0.184179 0.150322 0.017523 0.109369 0.069360 0.296806 -0.092574 0.086019 -0.040272 -0.214452 0.218021 -0.049376 -0.263976 -0.076032 -0.380396 0.116542 0.515542 0.180356 -0.017842 0.031988 -0.089932 0.076224 -0.382320 0.107484 -0.104323 0.068705 -0.171344 0.338899 0.043297 0.154393 0.080240 0.295519 -0.091210 0.395132 -0.310833 0.003224 -0.071597 0.309596 -0.000832 0.115913 0.217629 0.071965 0.116768 -0.077998 -0.009746 0.072402 -0.264939 -0.316999 0.283415 0.106700 0.071841 0.051117 -0.074730 -0.366820 -0.348587 0.090426 0.052183 -0.372548 0.186479 -0.128990 0.193439 0.290176 -0.108045 -0.149643 -0.199640 -0.093353 0.083246 -0.108104 0.176770 -0.415150 0.236742 -0.047691 0.067163 -0.186695 0.212924 -0.042629 0.163400 -0.186586 -0.225448 0.207876 -0.128097 -0.231218 -0.235233 -0.338101 -0.228401 -0.293721 -0.064208
306 0.012876 0.051253 -0.137046 0.044455 -0.083475 -0.273419 0.123251 -0.033862 -0.041902 0.099630 -0.123951 -0.236371 -0.183140 -0.168878 0.133852 0.415666 0.039561 0.087471 0.136115 0.065193 0.001344 0.224547 0.206667 -0.118240 -0.105781 -0.062304 0.180540 -0.074607 -0.212851 0.295776 0.255391 0.213489 0.093158 -0.039979 0.039707 -0.229864 -0.382169 0.240542 -0.197828 0.155161 0.263319 -0.206131 0.003786 -0.268589 0.046138 -0.187697 0.147308 -0.219406 0.371707 0.162403 0.130631 -0.175085 0.478870 -0.309037 -0.010733 -0.210928 0.079946 -0.083393 0.036435 0.248851 0.274213 0.133579 0.030246 -0.248756 -0.019903 0.033947 0.221742 -0.025434 -0.184601 0.153090 0.105209 -0.144076 0.436108 -0.135172 0.044713 -0.519167 -0.066406 -0.237818 0.006379 -0.409399 -0.062481 0.382950 0.177654 -0.117810 -0.063914 0.042876 0.450963 0.308863 -0.355163 0.106064 -0.029250 -0.321341 -0.118000 0.077845 -0.058057 0.087833 0.023673 0.071619 0.246364 0.295285 0.319595 -0.048962 0.088258 0.091775 -0.119286 0.047935 0.074413 0.039484 -0.011647 -0.041623 -0.486733 0.140877 -0.105636 0.152355 -0.205261 -0.089538 -0.264872 0.480112 0.028322 0.118530 0.361553 0.204930 -0.120127 -0.052431 0.156118 0.057578 0.019802 0.157194
488 -0.231556 -0.228785 0.093706 0.112920 -0.143896 0.060604 0.001304 -0.099208 -0.232615 0.062907 -0.109320 -0.331087 0.082554 -0.201385 0.127425 -0.111625 0.018824 -0.088092 0.268020 -0.404459 -0.076365 -0.005019 -0.092683 -0.086796 0.147065 -0.359542 0.126427 -0.185086 0.096921 0.196230 0.092195 -0.238667 -0.109530 -0.132584 0.036561 0.357737 -0.493712 0.133539 0.007605 -0.042778 -0.175690 -0.258449 0.243211 -0.384647 0.068213 -0.292006 0.031340 0.036004 0.034926 -0.029799 0.160281 -0.137294 0.122187 0.067932 0.022917 0.036616 0.104231 0.111898 0.261391 -0.156834 0.075409 0.129916 -0.079694 0.066963 -0.288175 -0.056764 0.197564 -0.117809 0.075522 0.175013 -0.132145 0.098179 0.174833 -0.083855 0.067033 0.154319 0.351223 0.038124 0.302867 -0.189660 -0.177159 0.341914 -0.156648 0.054375 0.217150 -0.126094 0.321729 0.117957 0.067208 -0.058481 0.302232 -0.324163 0.235981 0.165723 -0.236335 0.013572 -0.084891 -0.196201 -0.011578 0.039689 -0.160725 0.169519 0.107572 0.295242 -0.046580 -0.053821 -0.146121 -0.180896 -0.312762 0.299408 -0.155421 0.081926 0.144790 -0.111352 -0.497709 0.055505 -0.089724 0.038668 0.165868 0.074259 0.065765 0.219033 0.022066 0.144369 0.275184 0.142922 -0.063593 0.010615
245 0.100658 0.075566 -0.100655 0.019420 -0.167574 -0.036109 -0.232024 0.053427 0.242997 0.169123 -0.167871 -0.288463 0.031528 0.021666 0.300787 0.069101 -0.319504 -0.022381 0.124865 -0.036149 -0.248864 0.223123 0.247575 -0.105721 -0.048229 -0.061021 0.168733 -0.227411 -0.422010 0.394022 0.290371 -0.200912 -0.167386 0.133386 0.074704 -0.201579 -0.242677 0.185337 -0.132602 0.176499 0.209697 -0.290743 0.148774 -0.550232 -0.167399 -0.100445 0.023411 -0.190266 -0.088497 -0.022634 0.207633 -0.099959 0.467815 -0.109363 -0.015180 -0.350334 0.168383 0.092332 -0.026440 0.104853 0.068754 0.034638 0.062336 -0.259240 -0.337619 0.049217 -0.155166 0.227828 0.037657 -0.043305 0.000661 -0.167411 0.353953 -0.120597 -0.167015 -0.011952 0.098688 -0.320583 -0.019682 -0.031666 -0.187333 0.381638 0.262675 -0.008957 0.158527 -0.244740 0.383773 -0.136634 -0.206509 0.336549 0.032479 -0.388707 0.022121 -0.051626 -0.150858 -0.055544 -0.353324 0.112976 -0.012983 0.055679 0.249273 0.133743 0.166214 -0.091585 -0.155709 0.061798 -0.137850 -0.147791 -0.108851 -0.107750 -0.299236 0.080392 -0.314272 -0.045407 -0.201572 -0.032007 -0.324130 0.132543 0.014175 -0.008881 -0.014068 -0.167339 0.098040 0.239406 -0.061303 0.144775 -0.064188 0.184157
2680 0.315649 -0.119082 0.328253 -0.138943 -0.291279 -0.080184 -0.171500 -0.129480 0.153411 -0.058221 0.151437 -0.201292 -0.008130 -0.258116 0.258850 0.170393 -0.097058 -0.234907 0.382348 -0.002515 0.056691 -0.060530 -0.003317 -0.054968 -0.140517 -0.034933 -0.097338 -0.049069 -0.131021 0.120527 -0.042354 -0.060082 -0.004960 0.213507 0.000674 -0.020627 0.030104 -0.178113 -0.079726 -0.111163 -0.106987 -0.269990 0.345512 -0.050620 -0.116737 -0.137093 0.193103 -0.085144 -0.067104 -0.465896 0.586774 0.283650 0.282391 0.121789 -0.004500 -0.003914 0.128598 -0.085007 0.198085 0.085074 0.438588 0.236805 -0.007390 -0.076972 0.120097 0.224126 0.120544 -0.284905 0.174913 0.322108 -0.359180 0.018586 0.392889 -0.137081 0.227840 0.126425 -0.153620 -0.275143 0.363359 -0.137369 -0.051029 0.135233 0.057567 0.229095 0.295490 -0.062887 0.140918 0.040587 -0.220179 0.104473 -0.029695 0.060564 -0.257449 0.442644 0.008713 0.062008 -0.379077 0.006496 -0.021244 0.101545 -0.042534 0.099879 -0.023890 0.106908 -0.154812 0.000530 -0.023429 -0.123944 -0.335431 0.202072 -0.084246 0.287316 0.050258 -0.313292 -0.369676 0.164636 -0.382757 0.251455 -0.071727 -0.139460 -0.017595 -0.056360 0.103670 -0.193297 0.082977 0.130420 -0.279053 -0.350758
718 0.104302 -0.066914 -0.016454 0.236811 -0.263578 -0.198953 -0.244563 0.018869 -0.160371 0.070763 0.370574 0.043414 0.112020 -0.014864 0.276856 0.189481 -0.167848 0.074028 0.007092 0.093624 0.246767 -0.179774 -0.020052 -0.292317 -0.167381 0.066462 0.258557 0.195621 -0.076270 0.083776 0.079089 -0.403907 -0.299560 0.073540 0.282552 0.054345 0.138189 -0.130720 -0.031469 -0.085679 0.149088 -0.366300 0.429316 -0.198237 0.072329 0.053519 0.093268 -0.006373 0.246830 -0.340831 0.413044 0.341264 0.232008 -0.185599 -0.265816 -0.176807 0.513298 0.547177 -0.021348 0.123521 0.031017 0.137969 0.120088 -0.293744 0.247675 0.276913 0.155933 -0.014007 0.014276 -0.279790 -0.003577 0.024856 0.160875 0.133109 0.248757 -0.200857 -0.045866 -0.025062 0.041439 -0.065284 -0.182993 0.089358 -0.055896 0.049178 -0.030493 -0.171980 0.219187 -0.009314 0.024776 0.267688 0.246304 -0.158819 0.036444 0.199346 0.091203 0.047412 -0.038060 -0.482832 -0.290617 0.041437 0.274185 -0.097935 0.116153 -0.013172 0.129128 -0.145016 0.069183 -0.215135 -0.249404 0.031672 0.038688 -0.201527 -0.058607 -0.316639 0.051933 0.143921 -0.006802 -0.057156 -0.121021 -0.063474 -0.063329 -0.274038 0.044382 -0.385710 -0.358802 0.091579 -0.270783 -0.030919
380 -0.085247 -0.189383 -0.213334 0.204770 0.010518 0.049001 0.137523 -0.067005 -0.145963 -0.020517 0.080773 0.155111 0.101880 -0.265755 -0.037927 0.403174 -0.479456 0.436141 0.339225 -0.264187 0.338118 -0.540563 -0.145467 -0.149011 0.104832 -0.105722 0.071447 0.150569 -0.056915 0.210563 -0.205216 -0.227320 -0.173130 -0.122104 0.296691 -0.052710 -0.185476 0.017486 0.007586 -0.008885 0.321867 -0.015572 0.313255 -0.404765 0.126376 -0.123885 -0.017205 0.129432 -0.116726 -0.216131 0.377392 0.286861 0.352228 -0.307109 -0.129070 -0.417116 0.355003 0.071260 0.113502 0.369102 -0.012562 -0.100309 -0.047555 -0.178065 0.016833 -0.168810 0.140100 -0.159636 -0.141075 -0.148996 0.346109 0.114083 0.156316 0.066968 -0.114881 0.038115 -0.143409 -0.020832 -0.013055 0.011191 -0.232654 0.411894 -0.001770 0.364877 0.271898 0.043063 -0.064643 -0.214890 0.248113 0.232543 0.120404 -0.362447 -0.045133 -0.036083 -0.000498 0.287477 0.143210 -0.372036 -0.003915 -0.080706 0.346226 -0.174301 0.168396 -0.036370 0.155947 -0.171806 0.045884 -0.083202 -0.324419 0.317802 -0.179812 0.100139 0.006057 -0.155339 0.032760 -0.093478 -0.116787 -0.039313 0.120145 0.188796 0.169985 -0.051757 -0.057708 -0.252490 -0.064340 0.042190 -0.123636 0.148701
2288 0.119392 -0.058897 -0.116252 -0.151824 -0.107449 -0.056227 0.053357 -0.198929 0.061557 0.112599 -0.157605 -0.130783 0.017136 -0.175773 0.242351 0.295368 -0.207039 0.156297 0.296487 0.013801 0.206137 -0.107844 0.291410 -0.307668 -0.000916 -0.467170 0.051102 0.194300 -0.029267 0.043761 -0.261465 0.078782 -0.110887 -0.275300 0.243215 -0.298643 -0.242104 -0.253926 -0.043311 0.236189 0.271407 0.125767 0.066850 0.065001 -0.066480 -0.038433 0.042167 -0.023999 0.275615 0.342104 0.077566 -0.397509 0.464567 -0.124171 0.034020 0.176254 0.290103 -0.018683 0.047494 0.265575 -0.084476 -0.177974 0.216877 -0.146446 -0.079848 0.369880 -0.218699 -0.209427 0.181708 0.141733 -0.045803 -0.141553 0.088782 -0.010100 0.290957 0.028888 0.141021 0.094874 -0.309128 -0.410383 -0.108829 0.080831 0.046752 0.130158 -0.086170 -0.034448 0.373189 -0.162565 -0.170546 0.360459 0.162960 -0.066773 -0.017851 0.233081 -0.164502 0.019644 0.084308 -0.056820 0.025734 0.094247 0.273105 0.129135 0.244385 -0.009055 0.003219 0.013101 0.098840 -0.154990 -0.187471 0.052931 -0.407831 0.187146 -0.023836 0.096376 -0.209566 -0.184751 -0.115186 0.014167 -0.162815 0.139928 0.145827 -0.036899 -0.301770 -0.476823 0.177152 -0.204331 0.035807 0.337547
704 -0.012927 0.128957 -0.279595 -0.051745 -0.214016 -0.303626 0.012306 -0.072973 0.084334 -0.151779 0.092722 -0.078518 0.259691 -0.093722 0.082507 0.041078 -0.204321 -0.031258 -0.208106 -0.404326 0.240092 -0.115712 0.161960 -0.206489 0.091382 -0.249327 0.196413 0.034284 -0.032162 0.515442 0.189739 -0.420621 -0.158785 -0.136453 0.422177 0.091307 -0.475865 0.022965 0.315062 -0.121897 0.142187 -0.342808 0.490556 -0.205838 -0.175323 0.229820 0.080007 -0.101013 0.077702 0.071429 0.076006 -0.006603 0.201486 0.127009 -0.131882 -0.065346 0.043041 0.139054 0.173222 0.081294 0.118681 0.226148 0.163584 0.214249 -0.094161 -0.035655 0.269633 0.010068 -0.070464 0.226967 0.125249 0.154538 0.242769 0.046573 0.226286 0.132214 -0.180124 0.239671 0.250572 -0.125250 -0.048305 0.121203 0.061844 0.014909 -0.117351 -0.227980 0.554588 0.020988 0.190553 0.084893 0.089480 -0.373370 -0.032183 0.337045 -0.209859 -0.133293 -0.018017 0.176723 -0.055109 -0.069648 0.032989 0.147834 0.480213 0.126069 0.149196 -0.302364 0.086417 -0.307928 -0.197088 0.184669 0.241367 0.312845 0.150131 0.064223 -0.246162 -0.185127 0.018185 -0.102662 0.034156 -0.154098 0.477126 0.440417 -0.249091 -0.043838 0.244898 0.126675 -0.102620 -0.001881
625 0.166939 0.076713 -0.072323 0.143889 -0.231397 -0.022871 -0.014442 -0.358262 0.126414 0.250943 0.379385 -0.253820 -0.202440 0.109475 0.315002 0.105320 -0.182269 0.404332 0.412930 0.030658 -0.036242 0.013621 0.043179 -0.202738 0.099287 -0.271402 -0.064443 -0.125971 0.075336 -0.073294 0.228443 0.186649 0.004054 -0.312644 0.066060 0.124342 -0.324182 0.079217 -0.122262 0.095338 -0.331119 0.095162 0.095157 0.069386 0.193842 -0.335630 0.069280 -0.023843 -0.034629 -0.076004 0.008909 0.118226 0.128995 0.081845 0.069961 -0.083474 0.356759 0.305497 0.288299 0.025416 0.028691 0.297079 0.134442 -0.111669 -0.054289 -0.155605 0.265327 -0.214544 0.046197 0.374985 -0.055365 -0.332464 0.197793 0.030534 0.144493 -0.237352 -0.019565 0.137573 -0.344891 0.000269 -0.170102 0.070209 0.134812 0.493890 0.296355 -0.023527 0.138370 -0.088765 -0.467411 0.332822 0.147168 0.088507 0.074371 0.013904 0.059694 -0.032854 -0.082527 -0.060328 0.163024 0.044323 -0.035644 0.201294 0.058653 -0.138772 0.173681 -0.546380 0.120201 -0.040319 -0.405109 0.229928 -0.330985 0.028105 -0.095272 -0.094493 -0.253525 -0.048493 -0.510292 0.014626 0.136866 -0.025568 0.009971 0.087488 0.137833 -0.087151 0.362885 0.023547 -0.036119 0.033876
477 -0.132115 -0.137718 -0.151865 -0.102105 -0.259590 -0.087477 -0.026222 -0.390390 -0.023848 -0.141471 0.012419 -0.065529 0.287032 0.160441 0.308996 0.305891 0.181387 -0.185963 0.132316 -0.244448 0.119457 -0.079625 0.170835 0.072505 0.030867 -0.001411 -0.064525 -0.374695 -0.091910 -0.182195 -0.172692 -0.058859 -0.020219 0.066323 -0.108340 0.061906 0.242967 0.006395 0.022138 0.117137 0.079675 -0.054849 0.312126 -0.272840 0.031920 -0.046089 0.043585 -0.108644 0.081051 -0.366516 0.120676 -0.072284 0.081559 -0.228067 0.124800 -0.373228 0.135588 -0.062272 0.238897 -0.028198 0.273430 -0.050483 0.272462 -0.138648 -0.068405 0.320263 0.099648 -0.213078 0.371646 0.221199 0.117113 -0.082900 0.317254 0.182112 0.243415 0.121579 0.181736 -0.248074 -0.189541 -0.198889 -0.283663 0.388476 -0.042908 -0.054590 -0.040562 0.300625 -0.184584 -0.173381 -0.115628 -0.001674 0.301850 0.277248 0.237360 0.289681 0.189790 -0.003119 0.136249 0.033662 0.061960 0.125985 -0.090554 -0.014734 0.366195 0.097188 0.078930 0.040274 0.193366 -0.020597 -0.181757 0.264282 -0.410344 0.463643 0.117002 -0.168768 -0.220926 0.003069 -0.503361 0.010474 -0.355192 -0.304944 0.130672 0.152066 -0.065818 -0.432078 0.129419 0.185533 -0.035071 0.299840
1518 0.105660 -0.219874 0.368685 0.018675 -0.347028 -0.226751 -0.179411 -0.181113 0.026885 -0.084469 0.093519 -0.215778 0.229208 -0.121054 0.118688 0.430199 0.166976 0.095677 0.243312 -0.141205 -0.193427 -0.131643 0.125786 -0.168236 -0.169893 -0.179728 0.025602 0.338632 -0.182582 -0.127058 -0.057747 -0.049723 -0.283799 -0.198845 0.069385 -0.092549 -0.068312 -0.228592 -0.235211 0.305374 0.101319 -0.145675 0.289268 0.329043 0.416407 0.092726 -0.262332 -0.066621 0.137737 -0.102148 0.227969 0.078632 0.583586 -0.447074 0.216849 -0.074167 0.438067 0.507650 -0.147897 0.147390 0.067601 0.021202 0.142853 -0.132520 0.237255 0.202885 0.245713 -0.254833 0.206215 0.030165 -0.126893 -0.283055 0.303117 -0.018889 0.141560 0.189343 -0.145488 0.241102 0.254121 -0.036583 -0.010503 -0.045843 0.154431 0.025696 0.195929 0.007340 0.179806 0.059056 0.089820 0.265571 0.179778 -0.117736 0.139892 0.266184 0.084603 0.034346 -0.062162 -0.376184 -0.394780 0.038861 0.362835 -0.051038 -0.094909 -0.073122 0.170952 -0.025590 -0.187274 -0.017282 -0.320183 0.054603 0.158112 0.013511 0.153420 -0.065862 -0.161628 -0.135943 -0.061596 -0.111485 -0.063719 0.080147 -0.202435 -0.163151 -0.009055 -0.293634 0.023693 -0.056982 0.040269 0.253457
787 0.339088 -0.050969 -0.109190 -0.055787 -0.345555 -0.130150 -0.195944 -0.090021 0.301098 -0.017603 0.007562 -0.047575 -0.027183 -0.220150 0.315298 0.074528 -0.134158 0.089006 0.391602 0.087798 -0.151116 -0.299819 0.237499 -0.244418 -0.097016 -0.173650 -0.139226 0.035476 -0.002223 0.315562 0.003129 -0.157846 -0.045650 -0.152739 0.126805 -0.077397 -0.097206 -0.097910 0.111015 0.052172 0.022387 -0.284259 0.355932 -0.039120 -0.068517 0.071073 0.117733 -0.442393 -0.186289 -0.025609 0.400796 0.032160 0.397636 0.088245 0.084122 -0.273211 0.402458 0.036251 0.322721 0.190283 0.248727 0.229548 0.110739 -0.126554 -0.087128 0.168910 0.066618 0.012728 -0.029172 0.124953 -0.042995 -0.094962 0.439199 -0.119977 -0.187370 0.273899 0.039744 -0.114750 0.081589 0.117286 -0.154568 -0.041937 0.329438 0.481325 0.361903 -0.183108 0.382151 0.049142 -0.173554 0.145962 -0.107626 -0.106049 -0.109246 0.248466 -0.276424 -0.144107 -0.311977 0.396015 0.136271 0.216665 -0.119266 0.460830 0.081031 0.102503 -0.035951 -0.045419 0.049770 -0.031530 -0.099940 0.018099 0.022267 -0.005436 -0.040599 -0.215568 -0.424819 0.209527 -0.044829 0.090892 -0.190306 -0.189756 -0.007715 -0.066504 -0.032181 -0.068722 0.056158 0.202337 -0.216721 -0.088946
117 0.123099 -0.143691 0.206830 -0.126806 -0.388384 -0.057902 -0.264430 0.057912 0.049339 -0.222326 0.142521 -0.162886 0.215821 -0.151647 0.378899 0.455706 -0.418389 0.195495 0.290614 -0.279733 -0.235817 0.157388 0.080334 0.026976 0.144341 -0.127303 -0.064896 0.176818 -0.037716 -0.138298 0.064060 -0.146115 0.002524 -0.063383 0.091446 -0.048513 -0.191293 0.151631 0.127467 -0.106919 -0.035485 0.191761 -0.117175 -0.105526 0.312710 -0.140083 0.057135 -0.032143 0.049793 0.070569 0.171582 0.108317 0.238818 0.008182 0.014884 -0.132373 0.113539 0.295270 -0.100045 -0.011460 -0.270467 -0.263070 -0.014191 -0.024472 -0.249849 -0.004199 0.012779 0.046276 0.212069 0.249130 0.206479 0.010861 0.145253 -0.326217 -0.095131 -0.066483 0.119408 -0.165651 0.069313 0.029839 -0.242242 0.440931 -0.311276 0.352134 0.056448 0.141011 -0.170805 -0.297776 -0.216210 0.157677 0.301249 -0.267428 0.366717 -0.292350 -0.156723 -0.291123 0.057679 -0.295120 -0.107128 -0.146699 -0.038425 0.273334 0.154959 -0.070257 0.116004 0.027188 -0.022869 0.002370 -0.063153 0.031948 -0.203890 0.017801 0.097406 -0.303422 -0.543204 0.011025 0.288165 0.333502 -0.076926 -0.280854 0.203876 -0.080491 -0.038501 -0.023065 -0.227046 -0.017931 -0.007189 0.056396
1896 0.129871 0.142230 0.220326 -0.088363 -0.460825 -0.156565 0.141940 -0.254561 -0.059713 0.148003 -0.114771 0.160135 -0.109908 -0.182519 -0.125645 0.165046 -0.311102 -0.006116 0.292555 -0.026954 0.242013 -0.156717 0.116048 -0.337519 0.036818 -0.106510 0.204844 0.022833 -0.437148 0.335508 -0.358569 0.084719 0.025667 -0.045656 -0.366716 0.137033 -0.190924 0.020231 -0.027207 0.165006 -0.117417 0.046297 0.423169 -0.208268 0.052894 0.032173 0.066007 -0.029663 0.147230 0.050944 0.146191 0.278048 0.093726 -0.162621 0.185111 -0.322078 0.139810 0.330979 -0.047553 0.003410 -0.125118 -0.099697 0.057862 -0.352285 0.055807 0.261683 0.224641 -0.066915 -0.004368 0.244420 0.039804 -0.153626 0.030960 0.028185 0.272645 -0.075902 0.142117 -0.035399 -0.296973 -0.082298 0.024545 -0.089126 0.113675 -0.111399 0.357790 -0.251304 0.121189 0.064115 0.112280 -0.032270 0.079617 -0.416696 0.205584 0.013738 -0.057954 -0.168461 -0.176090 0.053946 -0.217373 -0.007962 0.373138 -0.067281 0.220199 -0.250508 -0.405293 0.059518 -0.349219 -0.174925 -0.355220 -0.027242 -0.280875 -0.125948 -0.317006 0.109491 -0.199063 0.126267 -0.265481 -0.081989 -0.056692 -0.090118 0.406128 0.227673 -0.102659 -0.288506 -0.396975 0.142781 -0.221764 0.177099
902 -0.011355 -0.072501 0.117512 -0.056524 0.291884 0.064087 -0.022370 -0.141045 0.158052 -0.403159 -0.112531 0.242099 -0.193100 0.048843 -0.134744 -0.029865 0.072433 0.040501 0.292367 -0.250658 -0.111590 0.037478 0.294942 -0.149071 0.204764 -0.212371 0.283658 0.019276 -0.329725 0.286236 0.236708 0.095998 -0.173872 0.147858 0.354378 -0.063076 -0.089741 -0.055276 0.236302 0.210633 0.326070 -0.139847 0.038828 -0.024722 0.189715 0.192706 -0.062402 -0.194306 -0.003050 -0.166224 -0.084538 0.130971 0.204498 -0.286138 0.200174 -0.155495 0.455665 0.160090 0.203565 0.372667 0.181608 -0.247946 -0.328348 -0.306657 -0.148323 -0.426331 0.001167 -0.216885 0.457584 -0.074495 0.320521 0.055163 -0.081306 0.090796 0.167754 -0.095584 0.012582 0.104688 0.284804 0.226802 0.035194 0.087377 -0.192725 -0.068562 0.006453 -0.106475 0.145115 -0.094294 -0.347524 0.120873 -0.056824 0.186642 -0.086062 0.017020 -0.409842 -0.140116 -0.296093 -0.258091 -0.306666 -0.065716 0.043971 0.131325 0.392741 -0.030749 0.041554 -0.025792 0.274350 -0.209624 -0.273558 0.176213 -0.399970 0.331677 -0.194813 0.261753 -0.006033 -0.166497 0.021216 0.015995 -0.074614 0.095298 -0.053398 0.046100 -0.081628 -0.071692 -0.303410 -0.054929 -0.200290 -0.121849
3455 -0.040382 -0.196159 -0.162722 0.145370 -0.100715 0.064709 0.084549 -0.039492 0.146786 -0.366466 -0.154020 -0.083757 0.113556 -0.190859 0.159031 0.527173 -0.458588 -0.021689 0.214348 0.019375 -0.090261 -0.016695 -0.139633 -0.070524 0.207872 -0.133605 0.099997 0.255243 0.036939 0.272428 -0.069571 -0.356677 -0.427202 -0.122543 0.133040 0.264879 -0.082991 -0.135734 0.216996 0.145489 0.370496 -0.005461 0.210851 -0.306412 0.231108 -0.014785 -0.054834 -0.174068 0.326123 -0.004562 0.058520 0.000234 0.394387 -0.152887 -0.170148 -0.417725 0.234167 0.093246 0.146772 0.339845 -0.079781 0.475890 -0.013585 0.000416 0.116731 -0.129895 0.109302 0.137743 0.055232 0.192808 0.494581 -0.063754 -0.058463 0.148344 -0.043021 0.284179 -0.002559 -0.105587 0.052590 -0.078849 -0.122336 0.143750 0.210870 0.162067 -0.028681 0.153200 0.087533 0.180428 0.207346 -0.053899 -0.061287 -0.437247 -0.112935 0.426656 -0.064509 0.157594 0.187192 -0.157897 -0.108043 -0.108567 0.140229 -0.232681 0.110822 0.068211 0.086696 -0.477381 0.062972 -0.002597 -0.144423 0.076644 -0.265235 0.157497 -0.104841 0.230340 -0.060215 -0.090591 -0.186993 0.264870 -0.707414 0.082226 0.197150 -0.009623 -0.048496 -0.041544 -0.021651 0.217663 0.029337 0.102295
3025 -0.275233 -0.024808 0.152716 -0.204091 0.019406 -0.042865 -0.393890 -0.334223 0.363656 -0.254256 0.273362 -0.207241 -0.060859 0.262120 -0.142109 0.164910 -0.068248 -0.154380 0.406518 -0.101345 0.009533 0.106870 0.278487 -0.301321 -0.014305 0.009031 0.454850 -0.001524 -0.254385 0.234776 0.095371 0.121909 -0.340551 -0.173055 0.206750 -0.110596 0.247910 -0.145386 0.066746 -0.012726 0.190046 0.086554 -0.020403 0.069787 0.075731 -0.133619 -0.180445 -0.016004 -0.067732 -0.281501 -0.004257 0.117678 0.320048 0.255718 0.152484 -0.068968 0.070178 0.130973 0.087256 0.291460 -0.038710 -0.041756 -0.092510 -0.382919 0.124607 -0.264906 0.032814 -0.315689 0.608532 0.144401 0.041701 0.151821 0.209750 0.030844 0.027451 0.270210 0.015260 0.121610 0.236723 -0.037104 -0.306727 0.121054 -0.070021 -0.041256 0.178950 0.015473 -0.005759 -0.118349 -0.358172 -0.130316 0.088565 -0.037798 -0.182188 0.190859 -0.348436 -0.258173 -0.184104 0.043056 -0.268795 -0.324615 0.227189 0.065644 0.129191 0.085883 0.138227 -0.106568 0.090353 -0.415126 -0.363775 0.529193 -0.040939 0.200500 0.059690 0.029113 -0.020449 -0.438792 -0.012302 -0.065625 0.031237 0.037891 0.040182 0.015997 -0.060332 -0.161661 0.023347 -0.031282 -0.026535 0.169012
986 -0.065251 0.226068 -0.025075 0.110701 -0.043913 -0.384295 -0.163503 0.089673 -0.023664 -0.234290 0.061671 0.318833 0.110726 0.096823 -0.120414 0.274246 -0.153996 0.092353 0.009353 -0.214607 0.321109 -0.247601 -0.113632 -0.300187 -0.035145 0.013380 0.289094 -0.025621 0.006955 0.070987 0.082739 -0.216205 -0.042205 0.090923 0.251454 0.170460 0.147915 0.025825 -0.253448 -0.214647 0.092369 -0.378561 0.190732 -0.284830 0.356490 0.009000 -0.122910 -0.073692 -0.029131 -0.362885 0.385852 0.072045 0.368827 0.100050 -0.180754 -0.308273 0.064500 0.212333 0.120801 0.256537 -0.018508 0.120346 0.020679 -0.146401 -0.216433 0.118268 -0.118402 0.018421 0.187012 -0.371130 0.131244 0.010673 0.216119 0.035894 0.332736 0.108553 -0.202418 -0.096986 0.013977 0.047326 -0.190396 0.067499 -0.033039 0.136728 -0.120887 0.019446 0.207022 0.114914 -0.008815 0.279543 0.273404 -0.062906 -0.182821 0.079972 0.212503 0.151474 -0.023245 -0.502041 -0.221233 -0.195628 0.194545 -0.260069 0.364059 -0.138692 0.063753 -0.366550 0.270168 -0.133540 -0.321756 0.043586 -0.297897 0.073349 -0.197305 -0.107839 -0.220071 -0.004610 -0.125419 -0.343336 -0.202890 -0.128010 0.366949 0.053530 -0.147440 -0.117382 -0.041281 0.283204 0.034612 0.060553
2984 -0.253137 -0.103005 0.191097 0.061300 -0.114469 -0.239861 0.024297 0.015735 -0.181030 -0.199535 -0.082267 0.023319 -0.255170 0.090201 -0.069466 0.457375 -0.142281 0.261975 0.514550 -0.240042 -0.223622 -0.365653 -0.116115 -0.201073 -0.192396 0.189306 0.176237 0.046787 -0.046187 0.118881 -0.149798 -0.113702 -0.009865 0.022189 0.240316 0.167766 0.034509 0.019367 0.044228 0.373044 -0.028704 -0.071452 0.117951 -0.052171 0.196921 0.071990 -0.455251 -0.033432 0.008572 0.099488 0.060650 0.135024 0.505452 -0.071089 -0.177666 -0.207374 0.177343 -0.003011 -0.259083 0.161938 -0.145132 0.122466 -0.396517 -0.351550 -0.155682 -0.162648 0.035105 -0.322022 0.301639 0.089925 0.009746 -0.323540 0.200465 0.020082 -0.031202 0.371849 0.107949 0.051672 -0.024721 -0.166760 -0.136029 -0.135228 -0.109872 0.064830 0.167397 0.216275 0.027879 0.029491 -0.055474 -0.098909 0.071623 -0.020381 -0.055354 0.381385 -0.121177 -0.012755 0.073248 0.060041 -0.637614 -0.166473 0.255280 0.056392 0.167468 0.023031 0.121634 -0.060877 0.003673 -0.280560 -0.259236 0.104933 -0.275446 0.015769 0.278478 0.079916 -0.227859 -0.201136 -0.059439 0.299803 -0.109004 0.197466 0.129820 0.030607 0.106877 -0.184717 0.080008 0.127110 -0.130704 0.052266
169 -0.185058 0.064440 -0.057430 -0.143994 0.160774 -0.416810 -0.030029 0.032025 0.102661 -0.210260 0.272146 0.234834 -0.199643 0.247321 -0.018260 0.225459 -0.154324 0.220790 0.437688 -0.165985 0.040755 -0.204495 0.194126 -0.296379 0.324805 -0.016764 0.222212 0.102203 0.276004 0.279595 -0.179703 -0.007844 -0.165171 -0.127393 0.246279 0.008985 -0.026124 -0.284937 0.061851 0.711452 -0.171718 0.078406 0.024674 -0.029769 0.120443 -0.128126 -0.238720 -0.071842 -0.119896 0.013936 0.206789 0.069823 0.552854 0.248085 -0.430921 -0.035147 0.266777 0.144059 -0.258324 0.169207 -0.170027 -0.061022 -0.173805 -0.315305 -0.150873 0.014825 -0.217258 -0.116254 0.183211 0.256987 -0.082520 -0.311294 0.123990 -0.129831 -0.225085 0.291983 0.370007 0.036025 0.053241 -0.412216 -0.358336 -0.151905 -0.189420 0.360934 -0.114153 0.309614 0.163107 -0.132697 -0.045368 0.025326 0.066476 -0.120221 -0.244076 0.040540 0.008395 0.079113 0.113927 0.136927 -0.310853 -0.260128 -0.092717 0.517148 0.230672 0.139049 0.228091 -0.004378 0.096291 -0.260274 -0.223225 0.192269 -0.466108 0.288451 0.118774 0.010859 0.086056 -0.213655 -0.001029 -0.049960 -0.117600 0.139897 0.207252 -0.248083 -0.096871 -0.126829 0.034516 -0.254185 0.041072 0.192386
1368 -0.263537 0.147269 -0.190817 -0.332937 -0.453416 -0.157025 0.117616 0.142634 0.005868 -0.203447 0.313832 -0.181086 0.148680 0.034078 0.316399 -0.245581 0.098903 0.072720 -0.001012 0.088204 -0.174446 -0.023934 -0.011509 -0.368814 -0.204362 0.019067 0.131192 -0.105242 0.181619 0.347870 0.304256 -0.063545 0.125594 -0.003508 0.176737 0.189413 -0.094310 -0.074104 0.180931 -0.013323 -0.260116 -0.071379 0.205275 -0.174838 0.062102 0.123347 0.424184 -0.191114 0.141309 0.031753 -0.061806 -0.033705 0.211904 -0.328114 0.082972 -0.426089 0.267881 0.088916 0.338774 -0.025672 0.128268 0.084589 0.268211 -0.058588 -0.126304 -0.063775 0.118586 0.028200 0.456642 0.118944 -0.053715 0.112872 0.273283 0.202464 0.225228 -0.245851 -0.112309 -0.067746 0.292682 0.081872 0.502120 0.007813 0.098983 0.306034 -0.452710 -0.027973 -0.145640 0.058096 -0.394005 0.169596 0.242790 0.116619 -0.172652 0.049080 -0.117671 -0.289584 0.157701 -0.040946 -0.026920 0.108922 -0.368336 0.337572 0.255897 -0.078929 -0.117865 -0.497453 -0.098082 -0.051121 -0.265298 -0.091869 -0.438865 0.534834 -0.144140 -0.142044 -0.361677 0.228650 -0.144465 0.050355 -0.290972 -0.298600 0.607467 0.086639 0.061912 -0.110789 -0.017625 0.041392 -0.362859 0.009997
985 0.147873 -0.022496 -0.113089 0.010304 -0.194216 -0.161099 -0.119233 -0.178999 0.128658 -0.284046 0.178363 0.252010 -0.040220 -0.336088 0.274371 0.177745 -0.065434 -0.146035 0.308498 -0.163674 -0.353944 -0.316706 0.368070 -0.142617 -0.040088 -0.140794 -0.049040 0.140577 0.131441 -0.255491 -0.028279 -0.078517 -0.074618 0.045115 0.304771 -0.039789 0.183398 0.010857 0.059167 0.020318 0.187719 -0.195302 0.327003 -0.175638 0.196999 0.001565 -0.106530 -0.418610 -0.172810 0.071557 0.480856 0.083461 0.182723 0.047660 0.117647 -0.252432 0.348132 0.164337 0.388320 0.269664 0.115952 0.080573 -0.076885 0.051338 -0.006697 -0.057019 0.068953 0.044996 -0.037483 0.303603 0.122368 -0.328664 0.072315 0.013355 -0.024205 0.315251 0.205176 -0.275197 -0.282973 0.366365 -0.230408 -0.027432 0.319166 0.346162 0.021463 -0.029652 0.109725 -0.077908 -0.143844 -0.047306 -0.042098 -0.276403 0.096070 0.272427 -0.220237 -0.271208 -0.270373 -0.095022 -0.145842 0.019243 -0.153033 0.021650 0.442861 -0.022750 -0.028185 -0.071262 0.305161 0.011349 -0.143876 -0.022192 -0.036709 0.018775 0.003170 0.039723 -0.161260 0.033966 -0.088056 0.146575 -0.333654 -0.382918 0.584659 0.218582 0.201949 0.150274 -0.270002 0.025102 -0.213058 -0.080538
1941 0.145814 0.341826 -0.016489 -0.408395 -0.102985 -0.279740 0.145875 -0.103194 0.007876 -0.249879 -0.047761 0.286079 0.083900 -0.093968 -0.124583 0.289298 -0.215902 0.010381 0.199242 -0.070062 0.139984 -0.247473 -0.241235 0.020264 0.181806 -0.037021 0.240444 -0.057060 -0.116681 0.346972 0.179288 0.073076 0.025318 -0.169063 -0.288745 0.044016 -0.280278 -0.032903 0.108345 0.626113 0.175769 0.357359 0.612551 0.011852 0.021077 -0.216058 0.243476 -0.100566 0.042068 -0.027484 0.023395 0.127028 -0.186316 -0.272449 0.021364 -0.411172 0.072176 0.659801 -0.094116 -0.114106 0.040859 -0.127775 -0.033195 -0.311393 0.054721 -0.024015 0.091591 -0.039143 -0.005847 0.144591 0.036067 -0.028872 0.169225 0.111494 0.023662 -0.275561 0.153300 0.115701 -0.295548 -0.083962 0.065000 0.246583 -0.018403 0.149547 0.121609 -0.168541 -0.178153 -0.144012 0.060299 0.136393 0.030989 -0.307860 -0.019011 0.106555 -0.082253 -0.225485 -0.131225 -0.134102 -0.218984 0.063574 0.274272 -0.201396 0.171308 0.209368 -0.391775 -0.166481 -0.138318 0.090514 -0.195901 0.219621 -0.231363 -0.035956 -0.390104 0.051998 -0.371835 0.121485 0.145384 -0.087780 -0.257464 -0.262682 0.442238 -0.113739 -0.034411 -0.071084 -0.092912 -0.200536 -0.036302 -0.172086
1925 -0.162572 0.246688 0.001353 0.047626 0.163844 -0.383758 -0.017163 0.048425 -0.389120 -0.042373 -0.134070 0.256246 0.279463 0.156093 0.134183 0.010198 0.095107 -0.029553 0.353858 -0.228801 -0.094514 -0.053127 0.163582 -0.208435 -0.084227 0.112365 0.239882 -0.291585 0.012461 -0.081814 0.023525 0.026381 0.253696 -0.105642 0.166220 0.124788 -0.105022 -0.158157 0.151716 0.134340 -0.045397 0.092929 0.398851 -0.245011 0.159856 -0.067241 -0.047837 -0.137687 -0.070236 -0.124859 0.063112 0.151829 -0.067033 0.007970 -0.294851 -0.381821 0.168432 0.586853 0.026655 -0.189439 0.213792 -0.430172 -0.225510 -0.115898 -0.003677 0.027188 0.056533 -0.086759 0.085598 0.206790 0.264228 0.093093 0.154230 0.019756 0.171389 -0.192183 0.211716 0.012420 0.128395 -0.064527 -0.228178 0.312746 -0.093732 0.214436 0.114026 0.114363 0.036783 -0.163735 0.009040 0.149682 0.229014 -0.076774 0.026478 0.073591 -0.126368 -0.218513 0.159442 -0.022091 -0.226124 -0.038128 -0.091813 0.003961 0.250943 0.314177 -0.103418 -0.079596 -0.072181 0.010168 -0.341091 0.223622 -0.516245 -0.208318 -0.077260 0.066216 -0.349017 0.052361 0.136453 0.230967 -0.030923 -0.141741 0.385321 -0.107117 -0.088805 -0.373852 -0.308681 -0.084060 -0.076229 -0.002432
2488 -0.325971 0.314905 0.037553 -0.334824 -0.145585 -0.126514 -0.135218 -0.029576 -0.053427 0.092628 0.170183 -0.050527 0.023813 -0.014877 0.196172 0.431718 -0.033843 -0.138084 -0.043223 -0.054894 -0.024981 -0.278164 -0.039108 -0.312746 -0.137203 -0.272584 0.375668 -0.419532 -0.130802 0.091170 0.026633 -0.148090 -0.394859 -0.265619 -0.103186 0.161880 0.032999 -0.068851 -0.225289 0.483235 0.059322 0.010265 0.275664 -0.122737 0.038599 -0.005439 0.011186 0.061038 0.174360 -0.084046 0.233746 -0.031148 0.095825 -0.295548 0.182203 -0.390754 0.241743 0.060837 0.031773 -0.148938 -0.102658 -0.062850 0.056124 -0.433756 -0.077887 -0.085930 -0.144954 -0.066935 0.270427 0.002647 0.094748 -0.002959 0.166278 0.472507 0.276784 0.157856 0.184670 0.130082 -0.161226 -0.156090 0.136440 0.035415 -0.321143 -0.098545 0.011066 -0.141833 -0.220800 -0.001215 -0.022056 0.363685 -0.246168 -0.440811 0.189527 0.056589 0.218138 -0.313105 -0.096905 -0.140022 -0.153001 -0.113933 -0.066964 -0.141130 0.222982 -0.107182 0.033551 -0.064144 -0.191710 -0.201397 0.108515 -0.017082 0.053823 0.163157 -0.087626 -0.250819 -0.248440 0.067560 -0.144155 -0.275850 -0.348005 -0.147298 0.592678 -0.132093 0.214856 0.046212 -0.088577 -0.162193 -0.336229 0.025649
2110 0.122143 0.215437 0.312750 -0.064574 -0.201617 0.256668 0.311979 0.156162 0.099377 -0.175488 0.133314 -0.346903 -0.106439 0.038021 0.003813 0.244167 -0.003350 0.061366 0.070281 0.176905 -0.280406 0.032909 -0.072885 0.043072 -0.020347 0.042865 0.128233 0.234592 -0.090694 -0.010274 0.316480 0.284867 -0.032733 0.108107 0.082915 -0.147833 -0.305670 0.064115 -0.032283 0.014329 -0.147119 0.318419 0.007517 0.057125 0.370050 0.096048 0.170540 -0.062992 0.337579 -0.147687 0.234292 0.416324 0.423249 -0.221116 -0.425074 -0.433847 0.326371 0.392844 0.043714 0.339838 0.122372 -0.294903 0.154369 -0.246449 -0.027914 -0.198778 0.415647 -0.062392 0.190940 0.200579 0.075292 0.102745 0.123916 0.064769 0.009045 -0.299238 0.093188 -0.315956 -0.246144 0.000146 -0.147941 -0.070505 -0.115523 -0.176486 0.333381 -0.396490 -0.041276 0.014861 -0.250131 0.181355 0.395923 0.143581 0.029816 0.049235 -0.119042 0.212013 -0.305972 -0.057974 0.080825 0.315577 -0.125909 0.046531 -0.174653 0.127292 0.134610 -0.081844 0.171821 -0.253429 -0.338030 -0.045895 -0.171053 0.223432 0.270994 0.042125 -0.247002 -0.160093 -0.372844 0.116549 0.063061 -0.053459 0.101712 0.039090 -0.020160 -0.147749 0.069792 -0.179860 0.181602 0.460453
154 0.140439 -0.037364 0.277819 -0.098105 -0.118876 -0.097052 -0.144930 0.153929 -0.036066 0.167205 0.013221 -0.096117 -0.135605 0.071418 0.039975 0.469376 -0.224629 -0.163874 -0.052580 -0.094009 -0.244308 0.297914 0.185569 0.118779 0.039947 -0.151600 -0.015836 -0.311462 -0.240888 0.087721 0.238666 -0.294228 -0.295153 -0.046543 0.131810 -0.077166 0.058859 0.004673 0.074896 0.105538 0.168806 0.074542 0.018233 -0.280809 0.470908 -0.136748 -0.010576 -0.163968 0.295075 0.008002 0.106051 0.122516 0.332328 -0.210557 -0.298136 -0.445614 0.251966 0.267833 -0.027526 0.206874 0.427499 0.116268 0.084780 -0.116777 -0.321663 -0.271707 0.134136 0.262868 0.085479 0.057027 0.204780 -0.273879 -0.001173 0.071014 0.021749 -0.597649 0.111086 -0.085230 -0.176708 -0.353800 -0.263009 0.046856 -0.249809 0.145241 -0.015378 -0.055737 0.231952 -0.006820 -0.192166 0.089713 0.140119 -0.351576 0.255124 0.152365 0.240531 -0.252245 -0.320390 -0.074266 -0.075498 0.194027 0.141022 -0.194371 0.140635 -0.017388 -0.035188 -0.094996 0.130263 0.033383 -0.210022 -0.096447 -0.198378 0.295343 -0.157582 0.159040 -0.177469 0.086722 -0.188387 0.435481 -0.206458 0.117240 0.112121 -0.153759 0.061976 -0.076826 -0.120362 -0.012686 -0.203181 0.072912
2011 0.088832 0.072639 -0.272580 0.008484 -0.279037 -0.200324 0.155608 -0.146074 -0.007574 -0.275049 0.157619 -0.082066 -0.123162 -0.414058 0.460492 0.723140 0.078183 -0.181769 -0.166172 0.096645 -0.074267 0.071338 -0.037751 -0.225598 -0.143378 -0.133712 0.143622 0.169209 -0.206437 0.056333 0.229010 0.039344 -0.083211 0.180855 0.086906 0.253605 0.003588 0.115546 0.068247 0.033700 0.257037 -0.416317 0.065005 0.325738 0.316628 -0.273737 0.170190 -0.427595 0.118328 -0.180839 0.333977 0.286035 0.141374 -0.196382 0.084863 -0.077122 0.373188 0.064297 -0.146480 -0.162226 0.096358 0.080029 0.078297 -0.241296 -0.002969 0.147418 0.108672 -0.487586 0.387024 0.153795 0.034500 -0.065282 -0.126280 0.124638 0.144564 -0.165770 0.114913 0.043345 -0.022400 -0.172437 -0.190291 0.138318 0.078200 0.270883 -0.115236 -0.182054 0.069537 0.041890 -0.169678 0.195272 -0.025261 0.135646 -0.019091 0.018752 -0.568326 0.065603 -0.078583 -0.027309 -0.081455 0.171217 -0.020893 0.104280 0.359542 0.107595 0.381851 -0.050640 -0.007513 0.081627 0.130285 -0.064691 -0.310638 -0.067275 0.500289 -0.012531 -0.363020 -0.247090 0.351836 0.108318 -0.227666 0.047746 0.068482 0.050567 -0.026890 -0.162442 -0.052759 0.009437 0.230476 -0.146007
723 0.184284 0.015207 0.112713 0.009871 0.015358 -0.001681 0.033900 -0.209387 -0.147609 0.161511 -0.059118 0.020513 -0.044031 -0.028534 0.173903 0.288793 0.043243 0.306814 -0.430709 -0.182531 0.054382 0.115164 0.008189 -0.349589 -0.152276 -0.068310 0.403016 -0.001466 -0.111519 0.202742 0.352251 -0.057775 -0.310825 -0.413990 0.068681 0.083540 -0.191688 0.004369 0.294000 0.077852 0.148698 0.016765 0.312794 0.000573 -0.008970 0.355859 0.224749 -0.172790 0.360244 -0.064732 -0.181990 0.318599 0.053476 -0.207216 -0.031352 -0.149831 0.203870 0.250536 -0.029339 -0.172157 0.040339 -0.024425 0.058238 0.043427 0.171465 -0.000419 0.237525 -0.353054 0.315940 0.005928 0.457783 0.205994 0.396944 0.031668 0.468000 -0.300985 -0.160231 -0.044057 0.343778 -0.163537 -0.151128 -0.228318 0.095640 -0.160108 0.092761 -0.364148 0.094265 -0.164663 -0.079667 0.263761 0.064933 -0.124923 0.311548 -0.028701 -0.453980 -0.186197 -0.203243 0.178630 -0.402343 0.406566 -0.230678 0.279932 0.256193 -0.009829 0.010557 -0.195759 -0.142840 -0.163678 -0.413286 0.225669 -0.099837 0.276880 0.195124 -0.046508 0.068817 0.059205 -0.173850 0.096641 -0.189003 -0.044338 0.219287 -0.043979 -0.086783 -0.095482 -0.274788 -0.053155 -0.127125 -0.100737
3876 -0.110989 0.104407 0.241353 0.002036 0.046289 -0.226701 -0.013161 -0.194835 0.120888 0.100043 0.276054 -0.128771 -0.130626 0.005560 0.245419 0.480796 0.118841 0.005682 0.072164 0.096325 0.234604 0.144122 -0.051911 -0.263472 -0.124186 -0.348538 0.145279 -0.169155 0.018481 0.064885 0.336089 0.182953 -0.341105 -0.279817 0.423449 0.202314 -0.173194 -0.000433 -0.163335 0.093855 -0.161242 -0.184666 0.045787 0.055910 0.337334 -0.137599 -0.239715 0.032078 -0.206823 -0.012568 0.167768 0.089745 0.089791 0.021717 -0.100646 -0.141647 0.253562 0.364091 0.071471 0.144735 0.370019 -0.041126 -0.011947 -0.082561 0.015602 -0.235418 0.230936 -0.368448 0.434084 0.399467 -0.163604 -0.263141 0.197324 0.002230 0.344729 -0.223685 -0.175743 0.341907 -0.039571 -0.081917 -0.094036 -0.033842 -0.417314 0.018458 -0.093582 -0.137024 -0.026746 -0.200493 -0.153357 0.431350 -0.082893 -0.114110 -0.092202 -0.251258 -0.248196 -0.098078 -0.009203 -0.175371 0.041072 -0.038750 -0.240824 0.150400 0.275659 -0.393386 0.161405 -0.550963 0.152439 -0.223646 0.131652 0.046521 -0.192609 0.108275 -0.076221 0.021694 -0.200706 -0.237247 -0.126276 0.006089 -0.021394 0.099155 -0.013180 -0.175524 0.006895 -0.074702 -0.268187 -0.386442 -0.022028 -0.036994
666 0.357475 0.129564 0.408719 -0.153313 0.113408 -0.015104 0.080634 -0.183475 0.171265 -0.011880 -0.143171 0.254833 0.054297 -0.269289 0.182275 0.119053 -0.121796 0.188241 0.141045 -0.520169 0.228446 -0.179740 0.234775 0.085508 0.418545 -0.134000 0.559945 0.406539 -0.137250 0.215633 -0.261324 0.030022 -0.031988 -0.010137 0.035410 -0.202302 -0.412782 -0.367114 0.026805 0.366985 0.029906 0.204866 -0.046722 0.020463 0.080815 -0.002614 0.070973 -0.236439 0.085914 -0.025092 -0.212328 -0.040237 0.138339 0.294438 0.046792 0.034122 0.140495 0.550931 -0.017342 0.235701 0.024063 -0.241377 -0.203993 0.130081 0.188861 0.031215 -0.111149 -0.184549 0.252012 0.300624 0.190108 -0.137472 0.081336 -0.183143 -0.008124 0.155673 0.211966 0.060055 0.043296 -0.317875 -0.292064 0.043253 -0.040723 0.189124 0.166103 0.044982 0.128974 0.186332 -0.131109 0.146242 0.223675 -0.052375 -0.037144 0.159366 -0.284552 -0.058302 -0.022406 -0.265271 -0.312701 0.064076 0.292889 0.111665 0.558653 0.230869 -0.061473 -0.051360 0.136784 -0.079095 -0.428949 0.164988 -0.369520 0.120385 -0.249113 0.100494 -0.087914 -0.243957 0.090400 -0.048107 -0.059052 0.038690 0.175605 0.326209 -0.179355 -0.207182 -0.144852 0.006884 0.189803 -0.052050
928 -0.045946 0.377953 0.181568 -0.244590 0.077457 -0.148901 -0.362085 -0.076052 0.123851 -0.165226 0.388303 0.355993 0.076972 0.348266 -0.042746 0.192106 -0.197932 -0.056837 0.089268 -0.393983 0.006305 0.068072 -0.068167 -0.414576 0.023326 -0.194416 0.153213 -0.068231 -0.177414 0.314367 0.072376 -0.100331 -0.162858 -0.141285 0.328174 -0.012833 0.087566 -0.213092 -0.336467 0.307742 -0.214895 0.167069 0.040535 -0.214441 0.531870 0.016091 -0.258241 0.135178 0.171571 -0.088944 0.015552 0.046695 0.497580 -0.345807 -0.075234 -0.212550 0.307207 0.279361 0.162558 0.306609 -0.037149 0.055147 0.073513 -0.312352 -0.366714 -0.302000 -0.104036 0.062509 0.235276 0.091490 -0.082106 -0.047697 0.009185 0.081866 0.277035 0.109858 -0.000371 0.323865 -0.238440 0.231155 -0.186687 -0.259680 -0.125271 0.021888 0.018067 0.035942 0.089974 0.166439 -0.038647 0.063884 0.000217 -0.170843 -0.052643 0.033280 0.263496 -0.120067 -0.392120 -0.304085 -0.400515 0.166153 0.222364 -0.329605 0.154657 -0.155928 -0.026676 -0.412623 0.147216 -0.402102 -0.156881 0.093374 -0.003145 0.367083 -0.117671 -0.162038 -0.353267 0.002881 -0.276783 -0.554278 -0.242241 -0.167230 0.138627 -0.181260 -0.002607 0.034686 -0.131798 -0.137825 -0.201310 -0.111093
1999 0.150424 0.091700 -0.160972 0.115143 -0.121614 0.031771 0.009197 -0.023859 0.154280 -0.414047 0.354838 -0.152279 -0.155532 0.007774 -0.001430 0.273276 -0.091158 0.053106 0.260162 -0.258709 -0.073774 -0.153185 0.213289 -0.536462 -0.069575 -0.052542 0.064370 -0.178091 -0.463509 0.587328 0.064835 0.208089 -0.152458 0.158543 -0.192449 0.155121 0.057677 0.004070 -0.097490 0.106147 -0.194439 -0.016594 -0.133109 -0.086332 0.130948 -0.363611 0.140307 0.279934 0.085678 -0.215729 0.188566 0.102422 0.103887 0.329238 0.071580 -0.214510 0.082595 -0.034296 0.145536 -0.101593 0.000685 0.235999 0.055429 -0.601186 0.172541 0.075033 0.178930 -0.460392 0.234844 0.166974 0.098514 0.185920 -0.053590 0.188938 0.168839 0.400321 0.062457 0.047082 0.037489 0.075650 -0.166499 -0.043742 -0.096557 0.014924 0.359519 -0.242072 0.318233 0.183159 -0.343222 -0.118701 0.194816 -0.315571 0.033338 0.198371 -0.035844 -0.085336 -0.459629 0.285423 -0.293181 -0.169427 0.214646 0.223531 -0.064512 0.110812 0.038058 -0.105400 0.047644 -0.378436 -0.084531 0.289025 -0.082324 0.220423 0.116580 -0.078052 -0.229583 -0.227613 0.121853 -0.300133 0.192483 -0.211854 0.063631 0.127967 -0.222531 -0.191214 0.080356 0.094496 -0.030313 0.268540
1159 0.001736 0.314307 -0.118936 -0.317885 0.044700 -0.359244 -0.228602 0.031299 -0.437943 -0.032326 -0.022676 0.194735 -0.115537 0.005661 0.049335 0.292873 -0.144013 0.077895 -0.034037 0.022312 -0.179825 0.069660 -0.182127 -0.171047 0.323927 0.186536 0.278652 -0.072165 -0.131997 0.189193 0.706101 0.106639 0.185225 -0.249423 -0.066137 0.265496 0.061312 -0.228097 -0.111958 0.450694 0.162944 -0.002260 0.314751 -0.260112 0.147622 0.013064 0.087115 0.036625 0.268224 0.187408 -0.008008 0.072635 0.057139 -0.247931 -0.081337 -0.376599 -0.052067 0.278239 0.255300 -0.205114 -0.243011 -0.125912 -0.141543 -0.231133 0.234618 -0.226222 -0.040784 -0.221045 0.191495 -0.112787 -0.175723 0.024977 0.354753 -0.082478 0.294493 0.010397 0.009429 -0.038519 0.114125 0.007581 -0.009777 -0.018964 0.168236 0.036121 0.029835 -0.192126 0.308740 -0.034547 -0.146874 0.334449 0.108472 -0.299376 0.139158 0.184975 -0.283314 -0.189370 -0.298792 -0.193451 -0.610069 0.135159 -0.102705 0.035573 0.104957 0.156651 -0.336376 -0.101941 0.016212 -0.123838 -0.132687 0.094578 -0.168502 0.140167 0.168840 0.050946 -0.352937 0.033042 -0.011550 -0.083128 -0.371113 -0.030518 0.375760 0.054530 -0.248981 0.266597 -0.011216 -0.092393 0.035114 -0.111163
2067 0.288076 0.030844 -0.258159 0.009843 -0.077011 -0.075598 -0.232531 -0.189585 0.217203 0.013059 0.209227 0.030098 -0.087020 -0.142963 0.284594 0.208847 -0.262958 -0.009988 0.443102 -0.137013 0.064770 0.077701 -0.042503 -0.381002 0.038901 -0.244800 -0.065497 -0.267422 -0.116659 0.154810 -0.188868 -0.111676 -0.114121 0.397673 -0.191986 -0.047767 0.078128 -0.159814 0.042135 0.090616 0.117741 -0.013482 0.030662 -0.049414 0.054312 -0.204494 0.156742 0.337461 -0.055992 -0.206202 0.150508 0.230159 -0.214132 -0.053588 -0.112889 -0.119722 0.037512 0.122238 0.253063 0.170393 0.246442 0.318303 0.256770 -0.387765 0.112552 0.092247 0.176026 -0.217477 0.146588 0.266496 -0.178793 0.141732 0.276718 0.015631 0.373355 0.194661 0.221660 -0.323738 0.052716 0.000026 0.100097 0.436227 -0.255652 0.020038 0.197384 0.008456 0.118394 -0.089425 -0.234884 0.370357 -0.057695 -0.390470 -0.082869 0.103362 0.085465 -0.220411 -0.144854 0.152823 -0.246453 0.042174 0.318614 -0.007820 -0.007697 -0.233247 0.063961 -0.243000 0.154153 -0.210133 -0.157007 0.184235 -0.228606 0.154185 -0.030498 -0.315064 -0.297257 0.136636 -0.133568 -0.246426 0.034437 -0.221841 -0.063783 -0.030632 -0.053406 -0.162986 -0.291739 0.030442 -0.112197 -0.122031
4727 -0.123551 0.006077 -0.252315 -0.006158 0.026109 -0.148918 0.060113 -0.137400 0.097150 -0.024020 0.388612 -0.128552 0.127143 -0.238758 0.495386 0.031211 -0.093403 -0.071431 0.134635 -0.185544 -0.247348 -0.001756 0.115781 -0.160812 0.247257 -0.071615 -0.052124 -0.202550 0.098220 0.164775 0.066488 0.047523 -0.044656 0.167770 0.408858 0.043949 0.060806 -0.239618 -0.015107 0.063846 -0.032701 0.136348 0.025573 -0.232482 0.132196 -0.317095 0.255310 0.203789 0.021573 -0.172028 0.186667 0.149246 -0.242198 -0.188471 0.120206 0.017835 0.136840 0.095751 0.181741 0.188058 0.167356 -0.027231 0.092599 -0.434018 0.121853 -0.122454 0.248506 0.119866 0.061258 0.335429 -0.103919 0.022221 0.135180 -0.110936 0.211391 -0.260327 0.118218 -0.318304 0.428946 0.212830 0.025707 0.452079 -0.103302 0.221255 -0.195415 0.134230 -0.201296 -0.088022 -0.355354 0.367985 -0.091704 -0.455522 -0.018744 -0.066887 -0.148472 -0.138109 0.195344 0.494414 -0.214292 -0.106105 -0.182787 0.404001 0.240421 -0.084225 -0.013333 -0.315684 0.179473 -0.238913 -0.152799 -0.030254 -0.437436 0.599623 0.317763 0.046931 -0.143462 0.187011 0.030337 0.187105 -0.098475 -0.238549 0.002602 0.227783 -0.082848 -0.298677 -0.255005 -0.105318 -0.120480 0.023913
545 0.061761 -0.075579 -0.156744 -0.437765 0.034097 -0.070682 -0.000335 -0.158644 -0.214584 -0.156543 0.071710 -0.225669 -0.075380 -0.133782 0.162300 0.091910 -0.474896 0.151889 -0.038839 -0.266023 0.064166 -0.030053 -0.225165 -0.322306 0.215285 -0.162601 -0.024982 -0.014254 -0.197057 0.065647 -0.010390 -0.296241 0.014798 0.092650 0.301308 -0.159173 -0.386011 0.087354 0.104167 0.001276 0.287878 -0.136896 0.086685 -0.510505 -0.004027 -0.268372 0.237988 0.066250 0.419752 0.086904 0.170180 -0.188454 0.373993 -0.060883 -0.163841 -0.002196 -0.071121 -0.093866 0.203473 0.238905 0.122617 0.069916 0.175204 -0.131779 0.029185 -0.214156 0.051784 0.012296 -0.246606 0.284601 0.151417 0.157376 0.007638 -0.071392 0.058422 -0.351929 0.010051 0.022671 0.134857 -0.362361 -0.024820 0.106753 -0.223721 -0.098894 -0.190753 -0.196353 0.152680 -0.185422 -0.002473 -0.022119 0.144070 -0.567776 -0.083366 0.423533 -0.251764 0.058235 0.220340 0.037974 0.166885 0.142886 -0.049151 0.115648 0.189280 0.211593 -0.003561 -0.010982 -0.119477 -0.356018 -0.289390 0.323710 -0.246633 0.281979 -0.089679 -0.100239 -0.299115 0.005272 -0.209769 0.344940 -0.341086 -0.182390 0.028248 -0.104544 -0.242154 -0.010676 0.149250 0.185271 -0.294898 -0.047510
2368 -0.075285 -0.231715 -0.028153 -0.216730 -0.197960 -0.128645 -0.193939 -0.181707 -0.137851 0.313275 -0.153956 -0.157419 -0.043423 -0.210177 0.540219 -0.074480 -0.284192 -0.010449 0.224103 -0.182665 -0.070588 -0.177440 0.066710 -0.075375 0.219257 -0.251839 0.364677 -0.049614 0.031646 0.039487 -0.060401 0.219584 -0.308662 -0.265901 0.116377 -0.130373 -0.619325 -0.018092 0.269212 0.186942 0.073614 -0.071055 0.300155 -0.235746 -0.441189 0.092419 0.134224 0.165400 0.260440 0.167739 -0.198251 0.018180 0.228573 -0.082776 -0.087795 0.072308 0.059445 0.017577 0.103773 -0.009516 -0.068976 -0.141383 -0.075799 -0.189692 -0.029560 0.002639 -0.025346 0.019360 0.018701 0.040884 -0.003447 -0.006870 0.407878 -0.134437 0.395768 -0.036093 0.098486 -0.198551 -0.106378 0.025532 0.005759 0.035673 -0.259392 -0.090951 0.015177 -0.049381 0.181114 -0.183261 0.065208 0.105482 0.397904 -0.360153 0.001920 0.150357 -0.140767 -0.108166 0.097313 -0.111941 -0.177099 0.036456 0.004665 0.064307 0.389484 -0.019207 -0.262046 -0.246984 -0.032258 -0.377743 -0.399215 -0.118250 -0.321193 0.528521 -0.101752 -0.087276 -0.378331 0.069101 -0.177524 0.079865 -0.169550 -0.037798 0.003215 -0.143047 -0.031966 -0.180976 0.156455 0.030736 0.085680 -0.156775
4219 0.056658 0.195718 -0.222743 0.148682 -0.063871 -0.123031 -0.378352 0.319640 -0.470931 -0.174919 0.458027 0.239494 0.561620 -0.216922 0.380898 0.110354 -0.079485 0.113231 0.124983 -0.207779 -0.122039 -0.168003 0.221917 -0.099849 -0.561502 0.075432 0.143351 -0.251413 -0.172978 0.041550 0.152766 -0.062738 -0.011773 -0.103428 0.194012 -0.038398 0.004453 0.125911 -0.040024 0.208910 0.237175 -0.137579 0.299951 -0.461529 0.114610 -0.305163 0.084470 -0.053180 0.058982 -0.131868 0.090685 0.069379 -0.077977 -0.006941 -0.349962 -0.352514 0.189322 0.537526 0.373397 -0.263636 0.107418 -0.261203 -0.196223 -0.069587 0.073136 -0.158301 0.321793 -0.151577 -0.225118 0.143300 0.134990 0.098684 0.207717 0.007958 0.090731 -0.119562 0.240340 -0.042833 0.049097 -0.054991 -0.260624 0.330066 -0.219633 0.067353 0.093805 -0.102959 0.312720 -0.157752 -0.011362 0.090076 0.081563 -0.414041 -0.074368 0.141317 0.125320 -0.126686 -0.076568 -0.192624 -0.232417 -0.260552 -0.146491 0.024244 0.244928 0.232280 0.185602 -0.133646 0.126899 0.053500 -0.200277 -0.000307 -0.006088 0.059526 -0.075264 -0.255799 -0.194801 -0.050512 0.255524 -0.238579 -0.124323 -0.323421 0.553578 -0.107548 0.050543 0.067935 -0.250324 -0.144626 -0.009098 0.124931
687 0.202527 0.119237 0.094469 -0.124902 -0.176262 -0.154384 -0.029380 -0.300142 -0.113657 0.048322 0.404360 -0.213874 -0.063788 0.179454 0.046673 0.186859 -0.136211 0.037722 0.428039 0.065551 -0.135964 0.218757 0.238741 -0.089740 0.309948 -0.095822 0.009998 -0.150541 0.211450 -0.103622 0.283633 -0.023709 -0.154648 -0.147825 0.228030 -0.110394 -0.077681 0.083281 -0.030359 -0.019187 0.271180 -0.356404 0.172361 -0.007807 0.172124 -0.008533 0.248058 -0.075829 -0.089950 -0.033874 0.211983 0.337047 -0.028140 -0.102771 0.184212 -0.350926 0.246616 0.446039 0.053224 -0.161884 0.064225 0.132444 0.202568 -0.099721 -0.043311 -0.406902 0.041728 -0.207832 0.263192 0.480479 0.300241 -0.114120 -0.102878 -0.044000 0.120675 -0.418887 -0.008805 0.026842 -0.190226 -0.179553 -0.188145 0.090394 0.097177 0.634013 -0.084552 -0.024544 -0.061495 0.157284 -0.537338 0.653151 0.272939 0.106003 0.377365 0.156905 -0.241987 -0.159146 -0.108857 0.022248 0.060043 -0.026831 -0.194914 -0.105670 0.520135 -0.005584 -0.066358 -0.441023 0.225249 -0.063439 0.032758 0.018013 -0.272928 -0.102150 -0.110954 -0.054929 -0.090496 0.082082 -0.014831 0.298788 -0.050369 -0.039970 0.100897 0.039891 0.149718 0.314620 -0.009910 -0.116149 0.026282 -0.346636
571 -0.232860 -0.198728 0.085196 0.181090 -0.228834 -0.032428 -0.154237 0.073829 0.102470 -0.112276 -0.369723 -0.203652 0.011773 -0.092869 0.200334 -0.043022 -0.183701 -0.153075 0.114502 -0.076003 -0.406435 0.307384 0.088385 -0.211224 0.308505 -0.274997 0.068752 -0.165473 0.167732 0.215956 0.159870 -0.367173 -0.060359 0.165071 0.046052 0.295237 -0.486985 0.009734 0.066101 -0.190486 0.325991 -0.258602 0.406274 -0.407627 0.183604 0.043737 -0.016490 -0.112833 0.260513 -0.154296 0.291789 0.124389 0.017392 0.065848 -0.013539 -0.056293 -0.010290 0.367855 0.272238 0.197905 0.045891 -0.050181 -0.241241 -0.081658 -0.314654 0.083754 0.142336 0.538577 -0.001985 0.196734 -0.150366 -0.100625 0.339954 -0.138259 0.172808 0.171057 0.084096 -0.125544 0.078738 -0.171040 -0.319516 0.496809 0.056746 0.103028 0.021156 -0.101430 0.429289 0.238213 -0.144030 -0.235903 0.069212 -0.374634 0.269323 0.115524 -0.094307 0.017461 -0.219471 -0.119053 -0.292514 0.023514 0.213846 0.233134 0.016167 0.059978 -0.200277 -0.043872 -0.319994 -0.464226 -0.121555 -0.048968 -0.134728 -0.254899 0.037903 0.004571 -0.198502 0.144239 -0.333111 0.278479 -0.270024 0.051619 0.358644 0.314425 0.151054 -0.139595 -0.027435 0.132998 -0.042996 0.422488
11 -0.084361 0.011146 0.101019 -0.193414 -0.261186 -0.218073 -0.165901 -0.109381 0.089848 -0.075519 0.141054 0.104547 0.063313 -0.193239 0.100250 0.116642 0.069400 -0.352082 0.476490 -0.150843 0.141818 0.165669 0.062044 -0.134359 -0.071610 -0.509362 0.001078 0.223737 -0.076631 -0.065762 0.008825 0.062221 0.012158 0.230541 -0.087257 -0.109592 -0.191855 0.099124 0.084497 0.329887 0.096140 0.112583 0.336942 0.405949 0.152657 0.249194 0.166427 0.013780 -0.054739 0.207102 0.261136 0.134161 0.500171 -0.059127 0.021117 0.213364 -0.016064 -0.098134 -0.212331 0.245605 -0.004545 -0.017606 0.027857 0.101977 -0.466227 0.148747 0.170063 -0.329426 0.372864 0.181577 0.248199 0.009991 0.378966 0.247105 0.571249 -0.037498 0.077542 -0.162051 -0.302143 -0.501455 -0.051316 0.258548 -0.031452 -0.001592 -0.029819 0.016674 0.168805 0.132519 0.003161 0.289578 -0.087268 -0.127861 -0.019426 0.318337 -0.035316 -0.082872 -0.405900 -0.118901 -0.005023 0.011851 -0.054404 -0.202743 -0.027467 -0.256884 0.079450 0.072842 0.316413 -0.139154 0.026758 0.182998 -0.064311 0.115266 0.069510 -0.320954 -0.415076 -0.191294 -0.211855 -0.051480 0.042784 -0.168739 0.407639 0.031551 0.301259 -0.339530 0.030517 -0.342630 0.029685 0.003481
578 -0.354066 0.046619 0.472042 -0.060899 -0.216299 -0.340573 0.039137 0.016398 -0.026277 -0.118582 0.179692 -0.005739 0.061657 -0.227444 0.102225 0.252007 -0.499467 0.109450 0.182600 -0.311488 -0.164439 -0.135204 -0.193170 -0.388148 -0.010163 0.134914 0.131318 0.017079 -0.408142 -0.015288 -0.012116 -0.019003 0.242163 -0.016170 0.159789 -0.014745 -0.197681 0.151617 -0.041050 -0.232872 0.037109 -0.033118 0.007785 -0.277728 0.500629 0.060177 -0.090581 0.043425 0.232187 -0.076754 0.047484 0.436340 0.254567 -0.239870 0.255644 -0.287068 0.091162 -0.225044 0.027201 -0.107698 -0.087998 0.232561 -0.219561 0.017243 -0.327988 -0.467415 0.089005 -0.333003 0.246427 0.087804 0.095669 -0.234953 0.057747 0.014907 -0.184035 0.002557 0.113403 -0.180110 0.265463 -0.031901 0.012477 -0.131068 0.008728 0.094844 0.262417 -0.162262 -0.051316 0.090742 -0.271224 0.198334 -0.132535 -0.273514 -0.037480 -0.145785 -0.067736 0.003657 0.253699 0.112985 -0.424355 -0.252043 0.094403 0.084483 0.421134 -0.136431 0.165041 -0.091004 -0.415763 0.131631 -0.277574 -0.151753 -0.237615 0.361326 0.234494 0.126691 -0.166987 0.222965 -0.548934 0.234850 -0.058426 0.167448 0.309569 0.195956 0.096256 -0.321536 -0.110858 0.117789 -0.172814 0.045783
567 -0.079949 0.012412 -0.209189 0.180539 -0.104578 -0.124948 0.142480 0.190130 0.090573 0.031827 0.122184 -0.081654 0.007391 0.035358 0.293887 0.189407 -0.190785 -0.120659 -0.120927 0.260291 -0.186024 0.425796 0.086340 0.116223 -0.115437 -0.020498 0.187039 0.070090 -0.357891 0.173518 0.348845 0.121143 0.045137 0.173222 0.300137 -0.062614 -0.183034 0.073342 -0.138385 0.050203 -0.089574 -0.298870 0.145617 -0.380791 0.018187 0.108510 0.075525 0.016030 0.212256 0.012859 0.030863 0.147803 0.461503 -0.334929 -0.154094 -0.365970 0.322724 0.061438 -0.001186 0.214237 0.218207 -0.142039 0.147786 -0.345689 0.106203 0.003501 0.300744 -0.057961 -0.008126 0.438198 0.026211 0.017625 0.246642 0.065780 0.251170 -0.450042 0.300582 -0.357626 -0.180801 -0.041955 -0.168244 0.095547 0.105286 -0.277923 0.216891 -0.529550 0.247918 0.044672 -0.211132 0.159878 0.045926 -0.169588 -0.043574 0.067127 -0.317331 0.027682 -0.088089 0.118580 -0.030592 0.402342 0.098763 0.225905 0.078750 -0.011455 -0.059971 -0.032409 0.174088 -0.237730 -0.124274 -0.277931 -0.496847 0.139862 0.031415 0.134149 -0.126578 0.047194 -0.433797 0.181227 -0.046892 0.234558 -0.073100 0.113467 -0.060974 -0.172193 -0.081365 0.171406 0.291663 0.282665
1221 -0.008435 -0.276787 -0.081612 0.005077 -0.166961 0.192033 -0.159271 -0.048137 -0.103637 -0.113631 -0.119354 -0.280016 -0.149921 -0.067588 0.123243 0.525226 -0.122442 0.160725 0.030706 -0.023338 0.121831 0.014572 -0.083888 0.131071 0.165544 0.044373 0.045851 -0.051476 -0.142559 0.360992 0.334640 -0.231089 -0.485715 -0.093621 0.054650 0.304926 0.136348 0.042370 0.099674 0.679941 0.000290 0.062069 0.138798 -0.247999 0.183908 -0.120788 -0.143042 -0.228684 0.295739 -0.076262 -0.196284 -0.001553 0.485366 -0.026381 -0.117154 -0.600647 0.249527 -0.058457 -0.179055 0.125430 0.001588 0.341727 -0.050285 -0.328346 -0.124098 -0.357232 0.464654 -0.082914 0.019732 -0.160477 0.344400 -0.254636 0.359687 0.197833 -0.175378 0.056217 0.087117 -0.095187 -0.094639 -0.042570 0.058954 0.167563 -0.156317 0.204582 -0.075321 0.221376 0.107362 0.091428 0.003390 0.038879 0.062625 -0.330414 0.049828 0.233107 0.136396 -0.097022 0.030738 -0.123934 -0.185848 -0.138796 0.111279 -0.058564 0.080716 -0.154721 0.343772 -0.171504 0.227324 0.080620 -0.262428 -0.041292 -0.154920 0.354413 0.196415 -0.021404 -0.360665 -0.177310 -0.295987 0.229018 -0.365339 0.121002 0.044380 0.028581 0.320960 0.179940 0.264108 0.141016 -0.106461 0.246932
888 0.039027 0.033444 -0.055854 -0.072129 -0.288053 -0.191120 0.100445 -0.021563 0.037398 -0.027376 0.046540 0.261819 0.091298 -0.081592 0.312413 -0.156664 0.247385 -0.078523 0.360637 -0.171728 0.010747 -0.024878 -0.022383 -0.096760 -0.031374 -0.008326 0.121954 -0.080001 -0.154834 0.145653 -0.081334 -0.145015 -0.405922 0.179934 -0.022088 0.140184 -0.021814 0.104040 0.017294 0.157265 0.025325 -0.454002 0.266713 -0.175858 0.159489 0.223216 -0.148845 -0.061378 -0.080245 -0.334546 0.112851 0.119050 0.193424 -0.147050 -0.246290 -0.218225 -0.202855 0.075290 0.262059 -0.019022 0.220158 0.154077 -0.009495 -0.037074 -0.086547 0.133028 0.054341 -0.050218 0.397450 -0.042780 0.109877 -0.122037 0.151416 0.286393 0.392333 0.102873 0.024241 0.084685 0.113128 -0.511139 -0.181398 0.468562 -0.090044 0.071835 -0.266113 0.315181 0.193772 0.071359 0.229402 0.081561 0.227665 0.180663 0.200599 0.093253 -0.193272 0.137487 -0.067222 -0.146358 -0.003417 -0.092196 -0.195385 0.033841 0.084408 -0.243464 0.132831 -0.407989 0.050677 -0.361584 -0.099356 0.023527 -0.502054 0.151039 -0.268702 -0.287130 -0.043762 0.008351 0.015940 -0.330076 -0.263276 -0.012189 0.242446 0.150817 0.012964 -0.385645 -0.168302 0.383004 0.079454 0.226741
435 -0.150580 -0.083036 0.158821 -0.303120 -0.352227 -0.090630 -0.059577 -0.124123 -0.151510 -0.109508 -0.057633 0.068813 -0.040429 0.125506 0.110756 0.133425 0.108505 -0.102459 0.477219 -0.208465 -0.248318 -0.042535 0.098287 -0.223593 -0.033821 -0.240416 -0.138581 0.306629 -0.256825 -0.013213 0.164171 0.176943 -0.100668 0.152155 0.115781 -0.041427 0.045742 0.132788 -0.066561 0.413165 -0.000056 -0.163971 0.437652 -0.125726 -0.000718 0.169976 -0.211078 0.071845 -0.029902 -0.109168 0.382998 0.230754 0.598192 -0.122571 -0.204154 0.145835 0.406289 0.124483 -0.004130 0.275109 -0.022612 -0.045491 -0.063144 -0.302973 -0.063012 0.253393 0.189383 -0.372861 0.285260 0.216112 -0.037225 -0.191307 0.106580 -0.199882 0.380420 0.111283 0.136272 0.015115 0.210121 -0.241198 -0.290940 0.038449 -0.049977 -0.360471 -0.032991 0.023724 0.193072 0.112028 0.349230 0.350794 0.236109 0.098597 0.177693 0.152213 -0.124245 0.129478 -0.214952 -0.023495 -0.332996 -0.070164 0.151271 0.042112 -0.069634 -0.062961 -0.152488 0.174702 -0.171566 -0.102774 -0.223992 0.188260 0.027867 0.149004 0.199524 0.110179 0.066430 -0.329282 -0.177125 0.185976 0.159087 0.034452 0.134628 -0.128545 0.057059 -0.183024 -0.051872 -0.122499 -0.057063 0.201231
528 0.163768 0.087090 -0.185746 -0.115658 -0.028585 -0.192468 0.077530 -0.317142 0.060427 -0.244777 -0.078140 0.118711 -0.046895 0.002690 0.001502 0.407700 -0.148308 -0.018698 0.104199 0.062518 -0.050859 0.276441 0.026014 -0.388245 0.208994 -0.344516 0.025793 -0.081876 -0.014403 0.195409 0.114716 -0.303539 -0.276062 0.083364 -0.032292 0.141812 0.251367 -0.306030 0.220556 0.258837 0.267069 0.075763 0.376019 -0.144700 0.512681 -0.153996 0.142458 -0.117780 0.375382 -0.161958 -0.004816 0.233347 -0.003230 -0.362015 0.000604 -0.251788 0.297648 0.370414 0.157634 0.248040 0.151041 0.303062 0.231421 -0.446959 -0.120603 -0.070210 0.240908 0.167511 -0.109215 0.141616 0.099813 0.046390 0.049413 0.274376 0.322150 -0.302409 0.227916 -0.055186 -0.007782 -0.065033 -0.098218 0.348103 -0.109612 0.227576 -0.047777 0.083527 0.071660 0.095040 -0.023367 -0.113644 -0.170881 -0.276452 0.064161 0.134002 0.053699 -0.201483 -0.009305 -0.009757 -0.237996 0.253631 0.287543 -0.247980 0.210192 -0.134652 -0.045616 -0.286998 0.054570 0.166649 -0.179106 0.184977 -0.343403 0.030882 -0.114259 0.254763 -0.113953 0.119066 -0.098806 0.085119 -0.382170 -0.076393 -0.153032 -0.102440 0.093565 -0.011558 -0.228175 -0.073634 -0.235793 -0.218162
8 -0.021867 -0.107294 0.073944 -0.345558 -0.061846 -0.528285 -0.249322 -0.207711 0.105824 0.133830 -0.049743 -0.216400 0.002850 -0.346862 0.329257 -0.119745 -0.077983 -0.140933 0.577256 -0.165819 -0.183674 -0.127627 0.068389 -0.321920 0.220623 -0.064393 0.414594 -0.050453 -0.018894 -0.302242 -0.004283 0.322229 -0.185141 0.148565 -0.066017 -0.270181 -0.188305 -0.344949 0.238553 0.225925 0.098117 0.082348 0.053940 0.307896 -0.112797 -0.110544 -0.078253 -0.138238 0.187565 0.235965 -0.025831 0.036171 0.522465 0.087517 -0.150837 -0.058343 -0.062980 0.232577 -0.133829 -0.060672 0.123453 -0.031180 -0.148240 -0.128639 0.369110 -0.102958 0.114733 -0.204594 -0.032370 0.010498 -0.032841 -0.004179 0.447495 -0.096340 0.062474 0.307666 0.169336 -0.255864 0.165873 0.039671 0.177644 -0.020687 0.069297 0.030561 0.012680 0.269740 0.121000 -0.165398 -0.046477 0.161222 0.350592 -0.614643 -0.118855 0.399807 -0.128501 -0.318518 0.149052 -0.052449 -0.170950 -0.242420 0.163822 -0.149259 0.006093 0.161427 0.067341 -0.082483 -0.102490 -0.191086 -0.557148 0.224789 -0.253493 0.152594 0.073748 -0.115796 -0.641663 0.090170 0.024127 0.340204 -0.201285 -0.270557 0.206055 -0.234577 0.169750 -0.122037 0.082089 -0.139294 -0.033213 -0.052707
50 0.043165 0.184643 0.103404 0.049444 0.098402 -0.089809 0.274151 0.008388 0.170081 -0.161479 0.090774 -0.032893 -0.133110 -0.086920 -0.290209 0.122659 0.061422 0.216881 0.278073 -0.043893 -0.016352 -0.307907 -0.237935 -0.160268 0.292768 -0.034256 0.062387 0.214251 0.054983 -0.037394 0.187151 -0.100765 0.009619 -0.029897 0.313605 -0.041874 -0.326950 0.169495 0.144912 -0.021940 0.391320 -0.034644 0.121003 -0.023009 0.331518 -0.010921 0.017552 -0.237767 -0.137115 -0.323864 0.065308 0.400858 0.297239 -0.216669 -0.321861 -0.442421 0.229842 0.576399 0.026588 0.248181 0.265178 -0.231711 0.011296 -0.135074 -0.194735 -0.422560 0.168166 -0.336263 0.055915 -0.104496 -0.117728 0.093944 0.100607 0.006804 -0.109992 -0.007714 -0.163424 0.188175 -0.067060 0.297094 -0.135827 0.121477 -0.195224 0.198014 0.351772 -0.166454 -0.045216 -0.257998 -0.133266 0.453133 -0.056268 0.088296 -0.314737 0.073857 -0.385740 0.250772 -0.084764 -0.252707 0.247045 0.186491 -0.126581 0.337838 0.321132 0.203872 0.107359 -0.258544 0.208376 -0.141837 -0.401720 0.420167 -0.186557 -0.070391 0.042163 -0.010687 -0.010876 -0.170703 -0.420960 0.062617 0.172906 0.266726 0.277937 0.063981 -0.006108 -0.247834 -0.300478 -0.301514 -0.035220 0.237545
357 0.322868 0.078218 -0.036316 0.042633 -0.175214 -0.132026 -0.280274 0.236816 -0.133612 -0.129341 0.162042 0.082288 -0.034972 -0.325935 0.520906 0.208937 -0.172727 0.096988 -0.317207 -0.255542 -0.157134 -0.257117 0.031672 -0.035078 -0.038076 0.220033 0.418498 0.000349 -0.253627 0.002745 0.281454 -0.295841 -0.066226 0.253583 0.321766 -0.103980 -0.067535 -0.173466 -0.264605 0.160291 0.377359 -0.182058 0.057827 -0.139500 0.179166 -0.080352 -0.018657 -0.032024 0.216182 -0.114191 0.352560 0.050179 0.010701 0.109388 0.071663 -0.059225 0.036407 0.552315 -0.053388 0.057078 0.095692 -0.149920 -0.051249 -0.316204 0.170680 -0.072157 0.027317 0.028995 0.049243 -0.047470 0.175352 -0.154825 0.104061 0.068427 0.160823 -0.003040 0.106571 0.048290 0.179860 0.018364 -0.118111 0.016136 -0.032408 -0.009552 -0.006179 -0.170491 0.297246 0.356697 -0.218948 0.247128 0.238824 -0.234905 0.022335 0.256210 -0.194884 0.014204 0.007609 -0.053420 -0.556189 0.047852 0.269759 -0.061991 0.045165 0.246471 0.096547 -0.268604 0.037961 0.023054 -0.185996 -0.126571 0.109413 -0.074932 0.171224 -0.335270 -0.200999 0.071194 0.104499 0.107370 -0.290528 -0.398752 0.085008 -0.174968 0.175082 -0.251094 -0.129511 0.270979 0.059238 0.128340
1031 0.075059 0.169738 0.184760 -0.036780 -0.394127 -0.486090 -0.185423 -0.246876 0.184391 -0.225647 0.153072 0.161623 0.175122 0.193368 -0.019144 -0.152244 0.074079 0.230439 0.324094 -0.136440 0.175534 0.055005 0.226986 -0.277504 -0.005263 0.212960 0.401724 -0.055484 0.049411 0.399168 -0.183330 -0.364245 0.102912 -0.144621 -0.051442 -0.195489 -0.474082 0.071843 0.122445 0.104483 -0.161823 -0.329809 0.360656 -0.091509 0.392775 0.424390 -0.307407 -0.129697 -0.141295 -0.094384 0.040555 0.198660 0.345653 -0.002594 0.004199 -0.315462 0.156452 0.478239 -0.033896 -0.038127 -0.120839 0.116785 0.092335 -0.055094 -0.210948 -0.001070 0.349099 0.226064 0.084450 0.375087 0.144813 0.101318 0.441750 0.113323 -0.008847 0.100869 0.023187 0.129147 0.215788 -0.472080 -0.397250 0.209069 -0.078301 -0.022685 0.097267 0.047612 0.437042 0.048570 0.059682 0.007555 0.001427 -0.145499 0.036182 -0.061311 -0.207679 -0.072511 -0.102957 0.248741 -0.093869 0.062988 -0.118898 0.223302 0.183744 -0.155493 0.055585 -0.066824 0.084649 -0.206710 0.092925 -0.146184 -0.081287 -0.172790 0.108235 -0.183510 -0.085621 -0.040806 0.061773 -0.249778 -0.021665 -0.207908 0.182311 0.263779 -0.214054 -0.028087 -0.199064 0.028925 -0.001607 0.072511
857 0.491407 0.170594 0.034730 -0.056588 0.186497 0.180101 -0.127243 -0.071800 0.287000 -0.444592 -0.104226 0.075278 -0.256152 -0.162549 0.106378 0.034681 -0.020967 -0.035263 0.131721 -0.148609 -0.070890 -0.311626 0.279508 -0.364216 0.313692 -0.210049 0.123547 0.313462 -0.126501 0.176132 0.087379 -0.191735 -0.095277 0.301524 0.067908 -0.138670 -0.293928 -0.024609 -0.011048 0.006778 0.204913 -0.194507 0.158674 -0.028970 -0.005148 0.011919 0.070548 -0.369467 0.026612 -0.177258 0.251535 0.027918 0.148831 0.200128 0.284302 0.020333 0.096230 0.332092 0.308466 0.289041 -0.199071 -0.134239 -0.010850 -0.419536 -0.018363 -0.287743 0.037372 0.141621 -0.013567 -0.101979 -0.028934 -0.184402 0.208899 -0.003920 0.455476 0.139405 0.005057 -0.122274 0.030063 0.302164 -0.023298 -0.016649 -0.053010 0.291989 -0.074047 -0.106155 0.268481 0.337148 -0.470892 0.121073 -0.024332 -0.008653 0.028109 0.240803 -0.050333 -0.075997 -0.207895 -0.442869 -0.175791 0.042673 0.350768 -0.025852 0.286854 0.025085 -0.092425 -0.218434 0.195938 -0.369159 -0.410241 -0.118772 -0.213428 0.101896 -0.188223 0.160642 -0.254024 -0.018346 0.024884 -0.108957 -0.064336 -0.086033 0.409853 0.318052 -0.167589 0.015499 -0.133026 0.138289 -0.078757 0.104968
1738 0.005325 0.205028 0.324344 -0.008979 -0.228353 -0.074774 -0.032298 -0.333602 0.211433 0.131240 0.122009 -0.408694 0.060709 -0.011457 0.277944 0.199246 -0.084252 0.139763 0.312862 -0.219454 -0.061343 -0.184416 -0.119923 -0.171834 -0.060309 -0.441787 0.170924 0.010290 0.016861 0.096078 0.210782 -0.156872 -0.161889 -0.394439 0.060462 0.150087 -0.296401 -0.099891 -0.185454 -0.230740 -0.384881 0.080144 0.221202 -0.235073 0.087317 -0.111685 0.009706 -0.025002 -0.234837 -0.127638 0.205729 -0.111643 0.272711 -0.107963 0.170695 -0.215707 0.425949 0.137293 0.475874 0.148794 0.363168 0.171545 0.020371 0.168948 0.161126 0.128565 0.225939 -0.237812 0.191807 0.327078 -0.302619 -0.147429 0.470200 -0.155439 0.105605 0.165795 -0.222809 -0.018092 0.085149 0.001831 -0.032190 0.229059 0.091963 0.142845 0.336868 -0.052930 0.070369 -0.118119 -0.181333 0.199490 -0.041194 -0.071488 -0.017159 0.079657 -0.014029 -0.042147 -0.128461 -0.133704 0.076259 0.229064 -0.400922 0.474225 0.107368 0.154566 -0.156921 -0.359493 -0.250217 -0.059933 -0.380662 0.262167 -0.188020 0.209199 -0.161065 -0.194632 -0.375058 0.123031 -0.438086 -0.148619 -0.149791 0.033317 -0.414891 0.020803 -0.053253 0.209705 0.255134 0.251227 -0.166626 -0.301272
1637 0.132546 -0.066528 -0.017810 -0.065528 -0.329504 0.019476 -0.257941 -0.040729 -0.199943 -0.076833 0.057418 -0.089130 -0.205506 -0.174653 0.229105 0.422210 -0.029426 0.211907 0.071073 0.050133 -0.016160 -0.160719 -0.152389 -0.097027 -0.193757 0.028975 0.301689 0.125632 -0.265337 -0.034662 0.500930 -0.355792 -0.369035 0.029866 0.065845 0.032182 0.023271 -0.135046 0.006883 0.413860 0.200528 -0.265149 0.157150 0.051527 0.093722 -0.268727 -0.131131 -0.144871 0.060690 -0.172771 0.133531 0.033764 0.470201 -0.078033 0.020133 -0.237187 0.164153 0.575381 -0.213535 0.251986 0.048567 0.153197 -0.033073 -0.456418 0.100320 0.009311 0.464105 -0.218016 -0.233432 -0.307518 0.179165 -0.290246 0.251203 0.021546 -0.037005 -0.227229 -0.270688 0.027495 -0.074033 -0.180445 -0.024398 0.276960 -0.010420 0.197697 -0.062704 -0.051567 0.331029 0.054296 -0.168009 0.123471 0.039982 -0.220162 -0.047884 0.150523 0.043276 -0.072628 -0.017839 -0.198876 -0.351090 -0.190902 0.096890 0.082761 0.159875 0.083633 0.366400 -0.213495 -0.009172 0.028954 -0.250417 -0.048162 0.066571 0.029924 0.120295 -0.093241 -0.268527 -0.217964 0.021801 0.182611 -0.262843 -0.165846 -0.386703 -0.178285 0.363888 -0.139061 0.052586 -0.004433 -0.172741 0.026760
1033 -0.234356 0.143342 -0.230604 -0.268669 -0.630782 -0.086689 0.088250 0.302079 0.037216 0.082352 0.158404 -0.105154 -0.208304 -0.288650 0.110368 -0.178693 0.135073 -0.053129 -0.008900 0.122368 -0.069217 -0.021108 -0.049587 -0.212968 -0.054388 0.201736 0.129760 -0.115079 0.071129 0.603231 0.059091 -0.052844 -0.063192 0.307831 -0.057275 0.239557 0.119478 -0.085205 0.139678 0.034180 -0.178259 -0.209611 0.309663 -0.363976 0.058111 -0.008838 0.282523 -0.288776 0.111120 -0.237175 0.375909 0.149117 0.157474 -0.213333 -0.233954 -0.295704 0.040997 -0.057430 0.182967 0.163277 0.223312 0.125775 -0.063561 -0.288897 0.021783 0.193656 -0.108905 0.132645 0.456195 0.088646 -0.225397 -0.076779 0.155821 0.258816 -0.016642 -0.177228 -0.004564 0.004927 0.439040 -0.436238 0.232061 0.242518 -0.024954 0.353221 -0.366055 0.074786 0.033626 0.011997 -0.043947 0.281331 0.404743 -0.050007 -0.141994 0.086595 -0.217991 -0.026793 -0.143838 -0.107513 -0.030261 0.080774 -0.100022 0.238428 0.138237 -0.031106 -0.034045 -0.094328 -0.072279 -0.170207 -0.335855 0.087510 -0.457008 0.199573 -0.097384 -0.210279 -0.308341 0.097647 0.052610 -0.154687 -0.237849 -0.197816 0.485891 0.164689 0.105803 -0.094457 -0.125684 0.342341 -0.291557 0.227609
1713 0.167286 0.080217 0.107983 -0.269221 -0.125215 -0.050777 -0.279375 -0.161429 -0.107192 0.071490 -0.149586 -0.175294 0.192076 0.001812 0.534699 0.108553 -0.351571 0.255630 -0.075754 -0.078186 0.056314 -0.058435 -0.088445 -0.050782 0.037022 -0.259249 0.250002 -0.075048 -0.340248 -0.038976 0.252061 -0.106513 -0.291821 0.171436 0.266937 -0.196918 -0.149850 0.071481 0.057138 0.034053 0.073282 -0.255283 0.321501 -0.336467 -0.102379 -0.123714 0.035999 0.039764 0.035530 0.015286 0.002940 -0.170249 0.256103 0.011688 -0.151166 -0.088237 0.353975 0.132933 0.211880 0.111743 0.026764 -0.168857 0.042728 -0.067936 0.292366 -0.053573 0.381041 -0.019694 -0.101120 0.086915 -0.136192 -0.189690 0.543309 -0.283239 0.015960 -0.123124 0.067347 -0.277328 0.024519 -0.112543 -0.152820 0.322252 -0.114364 -0.248686 -0.140420 -0.026927 0.194886 -0.160417 0.001867 0.302401 0.074225 -0.342588 0.068075 0.113445 -0.072585 -0.091882 -0.133843 -0.144227 -0.244489 0.060179 -0.128540 0.280852 0.180827 0.257046 -0.167727 -0.093485 0.019127 -0.272127 -0.431060 0.074946 -0.168954 0.121481 -0.259642 -0.295971 -0.408520 0.058146 -0.105199 -0.065130 -0.377168 -0.043213 -0.347858 -0.292433 -0.040451 0.048765 -0.109173 0.171866 0.051692 -0.205565
70 -0.043623 -0.011688 -0.454391 0.037515 0.337854 -0.347063 -0.015310 0.446023 0.124739 -0.252042 0.160277 0.248038 -0.044669 0.129923 0.130381 -0.015434 -0.116333 0.090041 0.166078 -0.127678 -0.161180 0.026295 0.073484 -0.189293 0.252798 -0.045141 0.150913 0.204519 0.121875 0.037571 -0.003668 -0.157895 -0.323339 -0.236630 0.386229 0.170317 -0.147766 -0.096538 -0.156129 0.340211 0.041322 -0.213365 -0.208405 -0.171926 0.074128 -0.214919 -0.222717 -0.094823 0.092006 -0.341628 0.324374 0.070782 0.514395 0.120365 -0.205088 -0.029651 0.226552 0.449426 -0.185670 0.261790 0.022837 0.038312 0.016712 -0.296706 -0.243742 0.036821 0.102828 -0.003040 -0.345690 0.281554 0.130785 -0.037137 0.080977 -0.202557 -0.029801 -0.078731 0.390327 -0.104716 -0.016332 0.009948 -0.204732 -0.088087 0.130033 0.411109 0.344243 -0.099610 0.363154 -0.026527 -0.181499 -0.069631 0.213293 -0.172472 -0.219087 0.043944 -0.096307 0.042674 -0.030392 0.156790 0.153827 -0.252124 -0.366237 0.423012 -0.052215 0.185546 0.354026 -0.029516 0.103341 -0.094925 0.028534 -0.052834 -0.411176 0.189845 0.039929 -0.313865 0.057560 -0.148065 -0.437316 0.183651 -0.372537 -0.024873 0.349194 -0.374794 0.341145 -0.330396 -0.246564 -0.195418 0.199165 0.176906
1499 -0.098433 0.144512 0.108087 -0.009532 -0.123466 -0.121163 0.005788 -0.275244 0.298574 -0.173463 0.173089 -0.225092 0.090117 -0.171171 0.343111 0.315498 -0.314186 -0.244311 0.275492 0.012173 0.048354 0.176650 0.159914 -0.273810 0.130347 -0.337676 0.470476 0.320860 -0.176236 0.281878 0.271636 0.171481 -0.127479 0.020722 0.008931 -0.307209 -0.073714 0.059842 0.179237 -0.015714 0.027817 0.333525 0.165432 -0.135286 0.549771 -0.169709 0.201655 -0.269287 0.320431 -0.209421 0.150160 0.056391 0.162765 0.075300 -0.194517 -0.298474 0.495322 0.299027 0.183746 0.172676 0.256845 0.104353 -0.094782 0.197931 0.023502 0.043831 0.141992 0.379998 0.128164 -0.034926 0.290003 0.217820 0.139700 0.101389 -0.157264 0.070715 0.183222 -0.264212 0.120552 0.225258 -0.485724 0.184375 0.166682 0.073662 0.034098 0.019233 -0.020253 0.032812 -0.089759 -0.427491 0.248667 -0.298077 -0.251121 -0.117368 -0.312573 0.124316 0.026497 0.038042 0.264525 0.058164 0.088422 -0.067703 0.087503 0.326118 0.013488 -0.215265 0.072375 0.027112 -0.189700 0.161377 -0.541829 0.034180 0.014923 0.135432 -0.023821 0.001257 0.166257 0.310572 -0.371547 0.176050 0.077574 -0.091034 -0.174856 0.095711 0.012923 0.265416 0.123351 0.189601
